{"layers":[{"0":{},"1":{},"2":{},"3":{},"4":{},"5":{},"6":{},"7":{},"8":{},"9":{},"10":{},"11":{},"12":{},"13":{},"14":{},"15":{},"16":{},"17":{},"18":{},"19":{},"20":{},"21":{},"22":{},"23":{},"24":{},"25":{},"26":{},"27":{},"28":{},"29":{},"30":{},"31":{},"32":{},"33":{},"34":{},"35":{},"36":{},"37":{},"38":{},"39":{},"40":{},"41":{},"42":{},"43":{},"44":{},"45":{},"46":{},"47":{},"48":{},"49":{},"50":{},"51":{},"52":{},"53":{},"54":{},"55":{},"56":{},"57":{},"58":{},"59":{},"60":{},"61":{},"62":{},"63":{},"64":{},"65":{},"66":{},"67":{},"68":{},"69":{},"70":{},"71":{},"72":{},"73":{},"74":{},"75":{},"76":{},"77":{},"78":{},"79":{},"80":{},"81":{},"82":{},"83":{},"84":{},"85":{},"86":{},"87":{},"88":{},"89":{},"90":{},"91":{},"92":{},"93":{},"94":{},"95":{},"96":{},"97":{},"98":{},"99":{}},{"0":{"bias":-1.1060362227435132,"weights":{"0":0.45609800071130324,"1":1.1703984209600997,"2":0.661028907736684,"3":1.0527902824308908,"4":0.43246028211607296,"5":-0.01788760900657261,"6":0.25574100860042126,"7":0.06575851234412029,"8":0.12140379403200763,"9":0.08973312480446516,"10":0.5292632745130834,"11":0.7210565869753555,"12":0.24236117303706253,"13":0.4299056129102992,"14":-0.37990624238714116,"15":-0.5505184601591773,"16":-1.5058790695255346,"17":-0.363476522994159,"18":-0.6706458693163149,"19":-0.336784477216191,"20":0.7276195899581464,"21":-0.07227772492758308,"22":0.2110524256171623,"23":0.169871225285517,"24":0.31099620192956146,"25":0.03707454084137367,"26":1.5658503399903545,"27":1.3609911463505338,"28":1.1243003878555358,"29":0.4038684689279147,"30":-0.3462520337615036,"31":-1.1185173360597502,"32":-0.38199530323950964,"33":-0.3048735940252635,"34":1.2140926544107422,"35":0.1508039702431666,"36":1.7511403224277158,"37":1.6600386467241888,"38":1.1040855586311762,"39":0.5712271842992993,"40":0.1427447406932622,"41":-1.0218841912034917,"42":-0.4375983445638015,"43":0.7907634360609511,"44":-0.5550273806128458,"45":-0.5985945680291432,"46":-0.1316314066358745,"47":-0.16964776918457644,"48":0.9736805652004559,"49":-0.2327402187364861,"50":0.23764197468551507,"51":-0.03202454514785982,"52":0.4914767107204671,"53":-0.5322525326837358,"54":1.3536462813365746,"55":0.7632754772878659,"56":0.25274908646509375,"57":0.6333311945866259,"58":0.9230283006121635,"59":0.22341634266642083,"60":0.474156188831501,"61":0.45147057379632677,"62":0.7977206455025695,"63":0.07620722702420181,"64":-0.4970860736633735,"65":-0.7048873248178528,"66":1.1106030172633172,"67":-0.3800329113752296,"68":1.0027285538082682,"69":0.4376141703895005,"70":0.4624370026887451,"71":0.01168195176945611,"72":0.9228463656906093,"73":-0.3576629338618012,"74":0.9271145417647739,"75":0.03456074018039457,"76":0.1883144170749021,"77":-0.5123112344279616,"78":0.1416041470047592,"79":-0.6067650788435429,"80":0.20798562718537753,"81":0.5234535072975031,"82":0.37202265204243606,"83":-0.050603546429074525,"84":-0.1741565286047002,"85":0.05536635245904667,"86":0.2017640326355121,"87":0.6628916462127122,"88":0.20379287361470547,"89":0.09242707106491117,"90":0.09821412735090146,"91":0.3098278746446568,"92":1.057590020810363,"93":0.8460632306370603,"94":0.6461912350426874,"95":0.14600023674237203,"96":-1.230042065194147,"97":-0.8737784872860471,"98":-0.48009255644013016,"99":-0.363880051207721}},"1":{"bias":-0.9667203146860661,"weights":{"0":-0.4042841724347238,"1":-0.21893483514385276,"2":-0.07138325820562988,"3":0.4163558067901694,"4":0.18816191078963082,"5":0.8489568018438988,"6":0.05815460464415644,"7":0.14941940518626373,"8":0.6553158433716336,"9":0.5322488825278099,"10":-0.5671929699233546,"11":-0.05041917905436349,"12":-0.289277624312867,"13":-0.7418373583025704,"14":-1.468310293808078,"15":-1.278729963261718,"16":-0.27162309582609695,"17":0.3986811699220533,"18":0.23200517467648402,"19":0.39516017975329953,"20":-0.5652918492481465,"21":1.143598981690544,"22":-0.10419728817409814,"23":-0.7448756303332741,"24":-0.00824343947010797,"25":0.06603168718800698,"26":-0.4454591616270704,"27":-0.44229738295115006,"28":0.11021198950446433,"29":-0.1351905621971368,"30":-0.050408349769765395,"31":0.2531982486639602,"32":0.29992919593023765,"33":0.608316584966191,"34":0.8011958824234935,"35":0.11762597585671469,"36":-2.378912526118181,"37":-1.3208677406757614,"38":-0.19756422038437751,"39":-0.31514775860298444,"40":0.7547100098718749,"41":0.4664018327275848,"42":0.563169092679727,"43":0.9479767565089454,"44":-0.7412668507519367,"45":0.45546921167250626,"46":0.5769674232830289,"47":-0.010694168973393824,"48":-0.2311370318748402,"49":-0.06302583270757653,"50":0.6668594288187562,"51":0.7743077783742573,"52":0.6709817988505298,"53":1.6320203803141293,"54":0.36867724837731203,"55":0.5904006796714887,"56":0.707526937471965,"57":0.9396073225556395,"58":0.29271168420270505,"59":-0.4967267905323245,"60":0.171328742744624,"61":-0.046801531959213404,"62":0.26384978899648204,"63":-0.72638876924816,"64":-1.3418109027819305,"65":-0.12248418215696137,"66":0.6035486632964907,"67":0.5259421087286293,"68":0.18878309057312181,"69":0.356536841040117,"70":-0.40050690463744454,"71":-0.5373095286678439,"72":-0.6699014473883369,"73":-0.6043597458255289,"74":-0.4563907787931412,"75":-1.1378591660453317,"76":1.1043972451728317,"77":1.4360591098970061,"78":-0.2121595475123213,"79":0.3358832545413867,"80":-0.45983986755596823,"81":-1.2110167622019175,"82":-2.1618486708914375,"83":-1.0676089955470718,"84":-0.6434826415653853,"85":0.23292178371845615,"86":1.4846282068191126,"87":-1.1126437147305153,"88":-0.3134764507837176,"89":0.045710183868129646,"90":0.05261974812879518,"91":-0.06686708984470177,"92":-1.200996244603787,"93":-0.52023675027896,"94":-0.39309972184435454,"95":0.0854042231163001,"96":0.2939939789341158,"97":-0.39540036208813595,"98":0.3178403897247411,"99":0.35954316479422593}},"2":{"bias":-0.27547045145676324,"weights":{"0":0.42635214485438,"1":0.5473050152738448,"2":0.7644422110776762,"3":0.852242777385514,"4":0.2600671010692423,"5":0.32372069483126975,"6":0.30805792900315,"7":0.2291366311201405,"8":0.5017143286068652,"9":0.18169768599202196,"10":0.18966331955526908,"11":0.9287650891406015,"12":0.5533143205171147,"13":-0.33105974081629835,"14":-0.022752485787714903,"15":1.249622558536118,"16":-0.5530822957640159,"17":0.2454471659090407,"18":0.6399272059742684,"19":0.2901914090279446,"20":0.258250170951388,"21":0.9517326020627244,"22":0.4115841219627314,"23":-0.16742305976317204,"24":-0.5807189246759128,"25":0.6573660900444406,"26":-0.5700176617651855,"27":1.0770891708710981,"28":1.06050031530223,"29":0.012152635943602944,"30":0.807524166291177,"31":0.5051573538047972,"32":0.2372158943170217,"33":0.014436395189922041,"34":-0.08240231324479037,"35":0.27944803771250043,"36":-0.5613511921651577,"37":1.0019826587881941,"38":0.010568016753611019,"39":-0.5341326998525896,"40":0.7117974698947045,"41":0.5230786885627473,"42":-0.16715225612184814,"43":-0.29507718412633,"44":-0.10420837587490692,"45":0.10779207175058664,"46":-0.3584549182943226,"47":0.015440297928938331,"48":-0.3881516549334359,"49":-0.7536676748148069,"50":0.3799237870150841,"51":-0.1061822865569655,"52":0.2981223081208628,"53":-0.4509843667752302,"54":1.7993032000959808,"55":0.7919833606036834,"56":-0.07366677576527897,"57":0.720890443720143,"58":0.6824474132627877,"59":-0.0675663814149608,"60":0.9226281672489376,"61":0.7422610179641694,"62":0.28014745322966156,"63":-0.37882041122862514,"64":-0.032071782909101836,"65":-0.5206319044084701,"66":-1.072405306495564,"67":-1.0747308427245816,"68":-0.3370079290007484,"69":-0.24937610172911653,"70":0.06597103561138341,"71":-0.5438116581800526,"72":-2.2798422892318713,"73":1.4510252951901317,"74":0.6789888108801153,"75":-1.511789723662497,"76":-0.6996058121117426,"77":-0.6176584389658069,"78":-0.32037163866690405,"79":0.1384321629172783,"80":-0.053442378366719716,"81":-0.3422782130935902,"82":-1.3829081079990322,"83":-0.42795212233493907,"84":-0.2789653152453419,"85":-0.032609952437555774,"86":-1.9728594783025777,"87":-0.8175317235143811,"88":-0.6502523400559947,"89":-0.42073068967870325,"90":-0.7015435581955018,"91":-0.025134878379234536,"92":-0.7451048153777244,"93":-0.05318013276029381,"94":0.4681595760515206,"95":1.0717498177456766,"96":-0.5838152548146095,"97":-0.5487705405146784,"98":-0.5886702743751162,"99":-0.32366205601270853}},"3":{"bias":-1.9033931881785424,"weights":{"0":0.3696322511328795,"1":0.7069669718360942,"2":0.5923933051689676,"3":0.29418800636925374,"4":0.6655507689447311,"5":0.45955379438295235,"6":1.050480578998208,"7":-0.028886434835621727,"8":0.2730154071795214,"9":0.46595470361746416,"10":0.07377636390911643,"11":0.5643879283264159,"12":0.34989254700847494,"13":-0.3851464301503596,"14":-0.1648154042744747,"15":0.12186870941597391,"16":0.42613454722596505,"17":0.8328405430161844,"18":0.3554497400004465,"19":0.6680427495480744,"20":0.11412051029425553,"21":1.0777858448149211,"22":0.9845059043956622,"23":0.8403952833380798,"24":-0.7026629392717341,"25":0.49671181113891727,"26":0.8672020400633857,"27":0.18307093244107536,"28":0.0626063659472759,"29":0.3164928509596165,"30":-0.717936530840811,"31":-0.5219756693285379,"32":-0.0349728159126941,"33":0.10558798951854391,"34":0.4176485800301882,"35":0.5639170984010284,"36":0.3450633576105764,"37":0.36085602782196,"38":-0.5211100303769058,"39":-0.45276003202176535,"40":0.31074214936219235,"41":0.06954050034922744,"42":0.26418991634801564,"43":0.31865632683050577,"44":-0.4661771812679122,"45":-0.5809282220616672,"46":0.180439731921591,"47":0.7223639346140188,"48":-0.4433658777040712,"49":-0.6268953967567038,"50":-0.09062415500413225,"51":0.5752855997400687,"52":0.7806126918458489,"53":1.1590143356262004,"54":0.35590747154835645,"55":-0.7149318483873979,"56":0.560524975537255,"57":0.779767293375209,"58":0.09777673369017692,"59":0.16380583185424635,"60":0.5789827020247899,"61":1.1929733970593557,"62":-0.2802395421298138,"63":0.6681201436146772,"64":0.5756292724547252,"65":1.2176512382745592,"66":0.9525992096787566,"67":0.48912733846136996,"68":-0.46431193440033536,"69":0.09807817983043432,"70":0.12014027684925722,"71":-0.8186579604194393,"72":-1.4618738812721792,"73":0.35083125931667575,"74":-0.3813844365689019,"75":-0.7018215260575889,"76":-0.8725064239981409,"77":0.0661652402879332,"78":-0.24600473122000552,"79":0.18748229858277196,"80":-0.14267343256619353,"81":-0.09119606855300846,"82":-0.2486817805951715,"83":-0.2712186906874212,"84":-0.7086480568394116,"85":-0.046370287182677196,"86":-0.5408876435502679,"87":-0.6170722565870382,"88":-1.016999529991006,"89":-0.20919465257497594,"90":-0.39109754731153007,"91":0.24896504963761928,"92":-0.27293410801056617,"93":-0.10925423503370722,"94":0.047533631965716826,"95":0.2996236435543347,"96":0.7562626515035746,"97":-0.6299187314458358,"98":-0.527938955979656,"99":-0.5354110875725583}},"4":{"bias":-0.5787575420954034,"weights":{"0":-0.6726462427279295,"1":-0.5508738618673352,"2":0.33646287339493935,"3":0.6512620029193397,"4":0.768347360767844,"5":-0.700472323827386,"6":-0.11852563156040793,"7":-0.1903489326424251,"8":-0.5403472631147823,"9":-0.13547335905907426,"10":-0.09743684978153767,"11":0.3698868725649821,"12":1.0102274774844662,"13":0.019590161016207083,"14":-0.8719573818714564,"15":-0.16520005569776577,"16":0.07754642265473902,"17":-0.2825880176778438,"18":0.35910497762113885,"19":-0.14034433925044687,"20":-0.4084515178135634,"21":-0.3475427671940669,"22":-0.21483432712267497,"23":-0.9091772445746843,"24":-0.4827094536424597,"25":1.114639630829823,"26":-0.7137910621695653,"27":-1.674402586935624,"28":-0.2157479725012617,"29":0.36296823000480605,"30":0.35569563236435403,"31":0.027193116978129855,"32":-0.261524212046949,"33":-0.372956164948324,"34":-0.052705504871648656,"35":-0.1552641096366224,"36":0.413220791998062,"37":-0.03520288651639296,"38":-0.5075899477691345,"39":-0.16320976807331947,"40":0.21232075977116763,"41":0.040240895901905556,"42":0.18947967401133414,"43":0.2774484810380017,"44":0.8065893404614228,"45":-0.620770096381901,"46":-1.0871188467964448,"47":-0.41048607662585695,"48":-0.5067796955755426,"49":-0.24896094697586044,"50":0.5025222879869726,"51":0.980202828649556,"52":-0.30038489692659454,"53":-0.3171280139267742,"54":0.3327426331401327,"55":1.010451387173083,"56":-0.2145727200894032,"57":-0.5892657281325383,"58":-1.0146896266388485,"59":-0.5187907813674584,"60":0.7357169473876155,"61":-0.6086481592067452,"62":-0.3197355279016822,"63":-0.2868331462472127,"64":0.4244833611199816,"65":-0.7652908889241352,"66":-1.8536426811928421,"67":-0.0890941368373587,"68":-0.5200582976339353,"69":-0.0027603433619885205,"70":1.026717437861315,"71":0.305111357426894,"72":0.7085286655663713,"73":-0.5805412408282118,"74":-0.9852837268303529,"75":1.2278081393257683,"76":-0.651278501470828,"77":-0.1779925889641798,"78":0.2961455185544638,"79":-0.025373962302517875,"80":0.47464173277681904,"81":-0.5334513465895463,"82":-0.26351862816163135,"83":0.24960798131993694,"84":0.5284472167424451,"85":0.9165681076074257,"86":1.3052776513215094,"87":-1.048272461169832,"88":0.48536301585656083,"89":0.19917361139245146,"90":0.2041440912132248,"91":0.3119084390083602,"92":-0.8460385533887538,"93":0.5411101480823528,"94":0.4111940528643696,"95":0.686582201429411,"96":0.33865079627530276,"97":-0.05271252481929136,"98":0.10878014121979036,"99":0.07572346672657804}},"5":{"bias":0.9812715061694075,"weights":{"0":0.07855857931330627,"1":-0.8598507924477874,"2":0.06915378359961626,"3":-0.19058759964720182,"4":0.26299954406599446,"5":-0.26038276488645845,"6":-0.5734124958525073,"7":-0.24291653048885262,"8":-0.2558773478984299,"9":-0.03691837649735377,"10":0.028472518587397626,"11":-0.5743912250425893,"12":-0.07443068891688692,"13":-0.1620836635949739,"14":0.6922917281944918,"15":0.8207684291296015,"16":1.0378940588188803,"17":0.0006489593722477482,"18":0.2375832319441346,"19":-0.25784524368184597,"20":-0.4336909977951333,"21":-0.5683848484248595,"22":-0.5117646087197159,"23":-1.244753105293051,"24":0.9706177175563989,"25":-0.3736546818070604,"26":-0.022335374024364404,"27":-0.5982717830199554,"28":-0.13005729627890517,"29":-0.33901502412948564,"30":0.22004193802769356,"31":-0.018289750833483547,"32":-0.11053677462159268,"33":-0.12779217916454344,"34":-0.3366940921177562,"35":-0.6771992410828632,"36":-1.7117458002122254,"37":-0.6160195946864306,"38":-0.06465519768811716,"39":-0.11122772809336019,"40":-0.6378786027978557,"41":0.16262983747959853,"42":-0.5810060167023123,"43":0.46055207760586453,"44":-0.17563533253225627,"45":-0.1295845361114947,"46":-1.1098560980818064,"47":-0.5073670193733179,"48":0.058290362060110186,"49":-0.07755983034204202,"50":-0.13614245706192415,"51":-0.7761902861141096,"52":0.20632927516006278,"53":0.10158724158702885,"54":0.410114296823531,"55":0.45614247104501726,"56":-0.3874125134362303,"57":-1.0860700491168547,"58":-0.4902547054621705,"59":-0.035682802935619005,"60":-0.0617356733015443,"61":-0.6286857316167394,"62":-0.9178359636795611,"63":-0.8694813251857941,"64":-0.4570383407582033,"65":-0.5036927169892547,"66":-0.38270107956973237,"67":-1.3228339521289738,"68":0.04477779472795728,"69":-0.13891832505686366,"70":-0.32008641695175244,"71":-0.8390399201671267,"72":-0.5539218539407765,"73":-0.23094103035972063,"74":0.0206893168426467,"75":1.036040936837754,"76":0.16188141741610707,"77":-0.7576336416613462,"78":0.3363912706016836,"79":0.03822096892427089,"80":0.5046065716800472,"81":0.32049248939734665,"82":0.5016521869810178,"83":-0.20275511928975834,"84":0.1474461779735971,"85":0.2377380546378618,"86":-0.6966881824021306,"87":-0.30998019349475997,"88":0.0039834573477571435,"89":0.012004012559368983,"90":-0.08359859036072692,"91":-0.42353734031474155,"92":-0.34250806883113005,"93":-0.2852925298342123,"94":-0.445411251100906,"95":-0.33018227335724315,"96":-0.11746250483762465,"97":-0.2716218202804768,"98":-1.053079897543118,"99":-0.31019658748739243}},"6":{"bias":0.5315882118056214,"weights":{"0":-0.07823779805801087,"1":-0.016364810813869528,"2":-0.09336681115889822,"3":0.6111542411717236,"4":0.5685757817974271,"5":0.3349589514061591,"6":0.767571325544243,"7":0.13506507840712256,"8":0.3914758098726765,"9":0.007088939213073987,"10":0.30202513669918624,"11":-0.5821548076768379,"12":-0.7741539378902921,"13":-0.17435589935153736,"14":-0.8948228686256543,"15":0.4841238272711445,"16":-0.27770106053572563,"17":-0.8000895865491207,"18":-0.733214570739808,"19":-0.5517368063140442,"20":0.19763382768235593,"21":-0.6687018535086681,"22":0.15414257089236538,"23":0.23041538894176997,"24":-0.30728954822862725,"25":-0.4863998583177696,"26":0.8411651721947571,"27":-0.0804439278763446,"28":0.21445425053716066,"29":0.2820760545756873,"30":0.5375111327640197,"31":-1.1751280262309263,"32":-0.49076927048849883,"33":-1.56580456865172,"34":-1.5135316025424292,"35":0.3796409959106306,"36":0.9735971335254666,"37":0.7799028597396909,"38":0.9146399547034917,"39":0.15144020844186482,"40":-0.01433876281335946,"41":-0.48795289991223445,"42":0.2714354475343651,"43":1.7110262501510023,"44":-0.36748221828559235,"45":0.4875340942236608,"46":-0.032719562913306834,"47":-0.6029361241959315,"48":1.157579664548475,"49":0.08793572214662686,"50":0.4744806712753374,"51":0.6878942512573446,"52":-1.0397209584403198,"53":-0.37237662170170865,"54":-0.47671706197826996,"55":0.5500837638331307,"56":-0.1732084703353385,"57":0.5148881361244505,"58":0.7955178289002995,"59":0.12149410842608033,"60":0.2867663479985836,"61":0.003100356414727089,"62":1.227642230102799,"63":0.2406817227842592,"64":-1.1404055662315888,"65":-0.18646474162067905,"66":-0.6177353606602022,"67":0.0688297664484845,"68":1.2325343442582766,"69":0.8315919941722869,"70":-0.1629956074652702,"71":0.06765108565149021,"72":-0.7364227266032582,"73":-0.8403661342031793,"74":-0.47876805675556333,"75":-0.38576011145458067,"76":0.18846518406752982,"77":-0.9740614108721878,"78":0.18064979534451386,"79":-0.5845775298544288,"80":-0.03188571278374633,"81":0.5797228616666963,"82":0.04835586496374355,"83":-0.27884010266766734,"84":-0.5121088289229655,"85":0.5567938609852379,"86":-0.2757121789429913,"87":-0.11465492466980046,"88":0.0032315851789831125,"89":-0.578237083873127,"90":1.2417764006911038,"91":1.2067427682420122,"92":1.8849759299067812,"93":0.765736544525678,"94":0.09222099965984716,"95":-0.07091783702496378,"96":-0.5939366804090733,"97":-1.2821548824119162,"98":-0.8802867321474134,"99":-0.3024700057059893}},"7":{"bias":1.0204277677870426,"weights":{"0":0.3404074371664171,"1":-0.035913600319678024,"2":0.640957888895991,"3":0.3521417747967957,"4":0.19335642911525802,"5":-0.12065095428970071,"6":0.09276135447791355,"7":0.30593513021274293,"8":-0.14230786449717328,"9":0.012305952253901138,"10":0.44006528337699563,"11":-0.22441196841034228,"12":0.6773553057160816,"13":0.43716820946593316,"14":0.7053987475365758,"15":0.7108831155770257,"16":0.2040222773661831,"17":0.03698701788642488,"18":0.07152096949032549,"19":0.18043461018005647,"20":0.07471718768841903,"21":-0.11929564826254545,"22":0.3961153013204358,"23":0.6974635771600031,"24":0.7618193260805892,"25":0.4308500808859506,"26":0.3748746270731919,"27":0.49893048554490654,"28":-0.2590580642580056,"29":0.06332090003426619,"30":-0.4906407018517466,"31":-0.40697800629757347,"32":-1.0090158816906427,"33":0.029399532610734642,"34":-0.00874611193549578,"35":0.08886808965226117,"36":-0.23108607468564635,"37":-1.610196421843672,"38":-0.1369795367112839,"39":-0.10551781645700083,"40":-0.5947394894612887,"41":-0.7549193333318367,"42":-1.0065277099491836,"43":-0.42121969924563,"44":-0.9910845735161312,"45":0.3817828401610989,"46":-0.5119411580856938,"47":-0.8158604496789856,"48":-0.32110372453970165,"49":0.18173150489814793,"50":0.03599682669090065,"51":-0.7048928131525397,"52":-1.58521161536208,"53":-1.681900993582315,"54":-1.2002116390269673,"55":-0.07583085787894443,"56":0.30972423500075325,"57":-0.4684313281031825,"58":0.006021820747468997,"59":0.6858543830664569,"60":-0.19579464637140231,"61":0.09797291101562135,"62":-0.40431966456134116,"63":-1.1127712380434087,"64":-0.05906010430915138,"65":-1.0161541593204708,"66":-0.7471605768283647,"67":-0.7275882309411031,"68":-0.9238437022428427,"69":-0.19330435558821643,"70":-0.25790123499124895,"71":1.1222253498660502,"72":1.1311086720531567,"73":0.634810286321791,"74":0.32502681787485793,"75":-0.8296733354231888,"76":-0.7074759971765827,"77":-0.08708421487018139,"78":-0.7410872438291892,"79":0.05573579428213286,"80":0.018744510740758894,"81":0.9459803432798701,"82":0.11946751032038147,"83":0.24378954539382341,"84":-0.020457230997706827,"85":-0.176999799795458,"86":-0.32703263653480574,"87":0.07923918956114236,"88":0.25056154652048074,"89":-0.010916882585364484,"90":0.11328952837831822,"91":0.48603957288332617,"92":0.43002908250186683,"93":-0.37294853371682735,"94":-0.19725081942109984,"95":0.2442177347888036,"96":0.21541860774052368,"97":0.32751682221460265,"98":0.11938383238241092,"99":0.46024011831733846}},"8":{"bias":0.14334230992664904,"weights":{"0":-0.614385767341272,"1":-0.19098080994278163,"2":-0.11004169135588417,"3":-0.7619174431545821,"4":-0.027473384028751623,"5":-0.41487932876700606,"6":-1.6711482239593682,"7":-1.0111651835795814,"8":-0.7335373354956768,"9":-0.16788766077207226,"10":0.00011258319917399535,"11":0.16301603731136882,"12":-0.408166393993262,"13":0.35230013343440936,"14":-0.0353358954883595,"15":-0.8483435714641641,"16":0.30590615405293275,"17":-0.47836849062195336,"18":0.6006310253695983,"19":0.3903359998706588,"20":-0.3981518154996404,"21":-0.9332623482245166,"22":-1.0284230401839685,"23":0.32649757870467944,"24":1.3925364677411012,"25":-0.5130738592738626,"26":-0.7417585836412343,"27":-0.8509777977816961,"28":0.16841373730128237,"29":0.48955949964587403,"30":-0.5405383965010481,"31":-0.4408890369284745,"32":-0.8418446969687042,"33":-0.0819845856848309,"34":-0.6843145501257911,"35":-0.5085918660734225,"36":-0.24725435928464712,"37":0.01518674311838049,"38":-0.0387577717155719,"39":-0.01578902602397499,"40":-0.6184664026351867,"41":-0.6781842573537764,"42":0.00645559034806757,"43":-1.6176290166113234,"44":-1.734245582177541,"45":-1.3171397465672798,"46":0.40108678720036306,"47":0.13799307967976,"48":0.05226017749915801,"49":0.534053885886743,"50":0.08527762636010285,"51":-0.34331980411854135,"52":-0.5358937555448442,"53":0.3012132780986653,"54":-0.38037326989874004,"55":-1.6457061439024607,"56":0.280400116829029,"57":-0.9418926658879845,"58":0.6809725960871326,"59":0.753189788343387,"60":-0.5346605301167301,"61":-1.7546119967510356,"62":0.6654576850292849,"63":0.7042549350328786,"64":2.132590730743939,"65":-1.6548797208562325,"66":0.06664131833027669,"67":0.9374641947007631,"68":-1.1146022644001474,"69":-0.5626478466300368,"70":-0.4098782075026898,"71":-0.5850690854431851,"72":1.0358936129805612,"73":1.16980984070568,"74":0.08266588414114429,"75":1.2944968283360598,"76":0.5318468445278983,"77":0.2545450156943475,"78":-0.27102698948024573,"79":-0.39255477369033714,"80":0.8729707228904885,"81":0.9552503070075545,"82":-0.0482718970263808,"83":-0.15788158978981062,"84":0.6654629165819425,"85":1.1042346640426333,"86":0.96278008999309,"87":0.28006974372645344,"88":0.730218059117962,"89":-0.40163710144446446,"90":0.6638514455538798,"91":0.09263941909069286,"92":-0.48414902745135957,"93":-0.07799276308979834,"94":0.4491040459838063,"95":-1.896654427772822,"96":-0.22424363871343136,"97":0.0947866585559605,"98":-0.10647762538121423,"99":0.2983896421311853}},"9":{"bias":-0.008440842338618488,"weights":{"0":-0.3714413114861022,"1":0.32006597712009854,"2":-0.7697424055488596,"3":-0.1830301617986414,"4":-0.6977247633489754,"5":0.0850553273087496,"6":0.06148637572041293,"7":-0.34316351025120767,"8":0.21542514842658927,"9":-0.0036299563015101694,"10":-0.6713984208694685,"11":0.44895552095341656,"12":-0.13486919504652503,"13":0.2981343212526858,"14":-0.036426944851251496,"15":-0.2749048074882304,"16":0.05764914603969301,"17":-0.6165252087297224,"18":-0.4010154276094442,"19":-0.17825337242042436,"20":-0.40665347070921165,"21":0.3394695563327684,"22":-1.202380752558693,"23":0.3771790708583963,"24":0.4078078225001592,"25":-0.5072802626224312,"26":-0.6133627407341676,"27":-0.3093315713407104,"28":0.6372067205190929,"29":-0.04817661745609785,"30":0.6162814014657908,"31":0.6854017906133478,"32":-1.1800054295299658,"33":0.34552820692810465,"34":-0.4679653343897873,"35":0.6217942323641067,"36":0.03339505601798517,"37":-0.5597377752859489,"38":0.48287264217765563,"39":-0.0913438824230559,"40":0.41063969525789656,"41":-0.6390552973275384,"42":-0.5060616336196058,"43":-0.4615806156768473,"44":-1.140399829130525,"45":0.17788070460742347,"46":-0.16867045808880934,"47":-0.7144986713925349,"48":-0.32736871504342707,"49":0.2603443132088743,"50":0.6731763612523027,"51":0.4670034469769263,"52":1.108175134869513,"53":0.8242070537286523,"54":0.21569475895088772,"55":0.8996674760024491,"56":-0.2650516219096294,"57":0.19129766420873182,"58":0.6316801808091238,"59":-0.34665311466488924,"60":0.19809659115862185,"61":-0.6813439280560165,"62":0.9143827129482109,"63":0.4440402730064446,"64":0.7849964241488069,"65":-0.49182810612431793,"66":-0.6274306812223225,"67":0.5053574068909223,"68":0.13663953440937718,"69":0.245438377310711,"70":-0.3881894489323082,"71":0.1812735340453896,"72":0.3643387559653881,"73":-1.4156792385317518,"74":0.5090432497531268,"75":-0.9564435430939429,"76":-0.048025334000186465,"77":0.45729792863425206,"78":-0.3168081050071033,"79":0.044762053564113106,"80":-0.33824804405449155,"81":-0.16911875061791443,"82":-1.01133721795664,"83":-0.7632849533352669,"84":-1.7478842845122256,"85":-0.6307484321151628,"86":0.6916774536685271,"87":0.013078944629267503,"88":0.3590801208090926,"89":-0.26850261830081346,"90":-0.08885578965100158,"91":-0.19590832065227615,"92":-0.9456802426055717,"93":0.026108461377467817,"94":-0.17216947128504884,"95":-0.4077247672351933,"96":-0.11039395854591778,"97":-0.4745934865340567,"98":0.2126601644061376,"99":0.411615676883325}},"10":{"bias":0.6656377876212792,"weights":{"0":-0.5405244399027528,"1":-0.5957493885773082,"2":-0.69154940681904,"3":-0.5037748028518404,"4":-1.022909027218568,"5":0.5532248072754835,"6":-0.018036672465469368,"7":0.6143734395798243,"8":0.6251354409653219,"9":0.3254112388572908,"10":-0.2676418581078745,"11":-0.6989676489533578,"12":-0.3212159199056773,"13":-0.2718063110644754,"14":0.7537236266843307,"15":1.5408643374179942,"16":-1.0931193025303214,"17":-0.34381452132694523,"18":-0.32512546456147157,"19":-0.475885175879568,"20":-0.33726309447602953,"21":0.36611175807605123,"22":-0.7404939806794533,"23":-1.7003528236203584,"24":0.4331276226748003,"25":-0.10652919337692207,"26":0.02143768825360871,"27":-0.7418504889962726,"28":-1.480794862432074,"29":-0.4607991552388978,"30":-0.4009018975357228,"31":0.35968632740200723,"32":-1.784061856858226,"33":0.5157423895671402,"34":0.4402091419397169,"35":-0.579517349938539,"36":-1.6915642829058208,"37":-1.0683955202545878,"38":-0.0410823754585608,"39":0.07277379007945259,"40":-0.31818735199705794,"41":0.4640473088083235,"42":0.8401340323469321,"43":0.6801909692654176,"44":0.40580144504059096,"45":0.7307203517313892,"46":0.05413830006994101,"47":-0.7012705773032974,"48":-0.07380528171278304,"49":0.08696429766459321,"50":-0.332892516454532,"51":-0.8329469195904988,"52":-1.3618842815423398,"53":-0.11662145869747413,"54":0.6677365081700656,"55":-0.9682071815763358,"56":-0.9037912395103695,"57":0.6735897654450506,"58":-0.482107601088516,"59":-0.5611731433946011,"60":-0.6664139626648072,"61":0.610246557791698,"62":-1.0370066444163302,"63":-2.746651329565099,"64":-0.5693687455990631,"65":0.6343830189499348,"66":0.416541635382552,"67":0.11620432345257273,"68":1.2246457854686608,"69":-0.18610250015179394,"70":-0.29745706604952754,"71":-0.3091071196301452,"72":-1.0036785115176081,"73":0.517613977705283,"74":-0.12753373711567104,"75":-1.2724426410928453,"76":0.6216148238328905,"77":-1.3013175784618538,"78":0.511474756135726,"79":-0.1108121129369495,"80":0.18128462893744848,"81":1.2348140122211824,"82":0.7182201452736785,"83":0.18309247634606535,"84":0.23831990698347658,"85":-0.44985582263350476,"86":-0.6843068841852556,"87":1.0518483801350302,"88":-0.11755235070499526,"89":0.04755170579323662,"90":1.025442177450782,"91":0.8472899901057697,"92":1.0715895459859273,"93":0.6722184339993175,"94":0.3440836840018129,"95":0.6250738843449825,"96":0.48069390871563017,"97":-0.2251672103290584,"98":-1.5526617835712788,"99":-0.5422246937149031}},"11":{"bias":0.07528148985476592,"weights":{"0":-0.0333720482603304,"1":-0.12673253475706958,"2":0.2444513923090917,"3":0.0716440066163909,"4":0.6513913691160653,"5":0.9625282627052308,"6":0.35858198457314855,"7":0.10632182232510481,"8":0.06655805128464758,"9":0.10305428201559814,"10":-0.22529481517277147,"11":0.14466586858837968,"12":-0.7070592907844465,"13":-1.6883095893137463,"14":0.7924511341848064,"15":1.1468020633146854,"16":0.14929997373335346,"17":-0.4366388328756818,"18":0.2624644081799298,"19":0.06752167539499282,"20":0.4217993438069491,"21":0.11288734071822594,"22":-0.09564369347227795,"23":-0.4940833714948797,"24":-0.5316492995616099,"25":-0.28473336582483205,"26":-0.3892944142951622,"27":-0.9610814842731367,"28":0.0886833684256924,"29":-0.04291187553932664,"30":0.2825296805714682,"31":-0.3211690987689884,"32":0.13895210235845093,"33":-0.6435627272266148,"34":0.23560775220756913,"35":0.17127980374528934,"36":-0.19348251892800722,"37":-0.36148430767254347,"38":-0.5003626003960313,"39":-0.49161115507144604,"40":-0.0034593915783260537,"41":0.4440747579217717,"42":0.8871213385637827,"43":-0.5002495614284106,"44":0.7925020668132836,"45":-1.023266419995045,"46":-1.1302736371712048,"47":0.10728972095739547,"48":-0.22628738719573593,"49":-0.6616519973194976,"50":0.005051570232596985,"51":0.30884655422399787,"52":1.4456600384625498,"53":0.45582744530579655,"54":1.4766513918941826,"55":1.3046496057711967,"56":0.7354081774237119,"57":0.0026183469397448055,"58":-0.3951924579364252,"59":-0.9320935707462495,"60":0.23053998534692938,"61":-0.5647044641848207,"62":-1.2974873033771108,"63":-0.5039738152530291,"64":0.1927408416304572,"65":-0.27934799342416144,"66":-1.3164696556000874,"67":-1.1345593081490237,"68":0.10932575971888334,"69":-0.5607884181930006,"70":0.24819638199229715,"71":-0.4908519006733583,"72":-1.263430548522736,"73":0.4700995372088132,"74":0.4206311130319472,"75":0.6180596047212131,"76":-0.29573326387405086,"77":-0.4512535004056486,"78":0.876115093953592,"79":0.023204366869748767,"80":-0.3482268103999446,"81":-1.0084254619523247,"82":-1.182980779646538,"83":-0.31019091927083176,"84":-0.1750874094239274,"85":0.24240310570318335,"86":-0.2842720029317764,"87":-1.2352340745057473,"88":0.40816265715757377,"89":0.16316665729912466,"90":0.25437774351714176,"91":-0.016676473744735812,"92":-0.31590541732246513,"93":-0.07212408086390755,"94":0.39487742266227727,"95":0.9258706897956186,"96":0.39861794281868485,"97":0.19581431391528623,"98":-0.3146035890132407,"99":-0.30260821713288}},"12":{"bias":1.4440297877236359,"weights":{"0":-0.17232008730008833,"1":-0.4666020540679916,"2":-0.2803642098606749,"3":-0.3134247963671243,"4":-0.2807288385497239,"5":-0.3937186980552807,"6":-0.6300604989441058,"7":-0.12864545399001143,"8":-0.5942307444084357,"9":-0.32307057175521425,"10":-0.6705264300136116,"11":-0.6660569094781622,"12":-0.47468158062120336,"13":-0.839190222860905,"14":-0.030400416327402546,"15":-1.76438633580726,"16":-0.43417997172062883,"17":-1.1101934270440441,"18":-0.08007057226966746,"19":0.04781010065127299,"20":-0.4130870103231217,"21":-1.3266312234622535,"22":-0.11430816835321361,"23":-0.25805023350728745,"24":-0.0041734450977099,"25":-0.8884009243332375,"26":-1.0011289129237002,"27":-0.20235325768558135,"28":-0.5350415762480469,"29":-0.7392963988578659,"30":0.36838073090675,"31":0.13066037852318582,"32":0.20062460081747027,"33":-0.26744712239729224,"34":-0.0750042961169644,"35":0.6653189393859729,"36":0.6880802218832093,"37":-0.16342112617562574,"38":0.24378247774197037,"39":0.20468775062945083,"40":-0.3707021482212537,"41":-0.8062895811513782,"42":-0.49153353339865574,"43":-0.5833541880755775,"44":0.6055993097136708,"45":-0.474664990673483,"46":0.6761212254429385,"47":0.2470645699271976,"48":-0.3809675985864619,"49":0.4325726073067192,"50":0.3235502045097203,"51":-1.0790778310596483,"52":0.5802114236824114,"53":-0.23741791041888816,"54":-0.1711509287831023,"55":-0.40168711330604817,"56":-0.7375022889013004,"57":-0.6599721558195594,"58":-0.3568881688365827,"59":0.37122346708207915,"60":-0.023775081650381138,"61":0.10310526311607178,"62":0.07806768679181082,"63":0.8102087155031431,"64":0.5370581446564431,"65":-0.6194417698975876,"66":-1.3786033685794437,"67":0.2886695780215894,"68":-0.5740281742426725,"69":-0.28263070011047187,"70":0.18862944526048286,"71":0.31694134778996563,"72":0.34947150907601277,"73":-0.49296507033105536,"74":-0.005342185076569697,"75":0.6071415323001076,"76":-0.59724993576573,"77":0.3470175538258149,"78":-0.022176314832187204,"79":0.22191903631080181,"80":-0.4361569270506412,"81":0.42954525166256846,"82":0.4800070408256969,"83":0.032493228372691384,"84":-1.5994861912009284,"85":-0.5222498714431913,"86":-0.7301772924061392,"87":0.3693148912913311,"88":0.5568242193236391,"89":0.27502973916228046,"90":-0.11809309870785299,"91":0.4056551850620369,"92":0.3933565051678064,"93":0.3812663921973165,"94":-0.3930810831727541,"95":0.25424801849224277,"96":-0.29332625849370136,"97":-0.14615660411260856,"98":-0.5939993419502121,"99":0.6157370488042375}},"13":{"bias":-1.6718610004400474,"weights":{"0":-0.4671517372556899,"1":0.26682475306910464,"2":-0.09297155799915265,"3":-0.3953421236465263,"4":-0.41667426250902345,"5":-0.24339388684743768,"6":0.5546889621131801,"7":0.12497192816595128,"8":0.4594379307288389,"9":0.47538360771886023,"10":-0.025131156599835586,"11":0.5442272195054947,"12":0.278666825299507,"13":-0.41980725088792675,"14":0.0279467947009507,"15":-0.2023559513424673,"16":-0.2138208134410544,"17":-0.015574592124661123,"18":-0.6376758466113821,"19":0.263924512900558,"20":-0.07164019821911127,"21":0.09084149428616994,"22":-1.0711059967272138,"23":0.6650543372089015,"24":0.9939553968499748,"25":-0.23868300830655134,"26":0.01617215968577905,"27":-0.48705014226412374,"28":0.2382913308650299,"29":0.6533654345629356,"30":0.4205543004608146,"31":-0.5639729054928246,"32":-0.38632032134834815,"33":-0.11002702957202026,"34":-0.24437687612741216,"35":-0.04822945606062015,"36":0.718757482090485,"37":0.436416858971218,"38":0.0988444033666676,"39":0.33974944864191114,"40":0.5496157401087995,"41":-0.7003468770607354,"42":0.7935491335168477,"43":-0.5861051507330317,"44":1.5273526057987286,"45":1.1677285769401655,"46":-0.05053217247357996,"47":0.08615311571673442,"48":0.30380625254012383,"49":-0.0991732852165999,"50":0.2668931832374856,"51":0.7404495596146708,"52":-0.11222827255482286,"53":-0.41600911267369645,"54":0.4895946236814828,"55":1.086810352298517,"56":0.6125284091371103,"57":0.04100383480967565,"58":0.43696323247762375,"59":-0.23195934134975602,"60":0.5185907497768718,"61":-0.28807759007272465,"62":0.7883076253340838,"63":1.270574958706151,"64":0.5381961567330269,"65":1.4361627645427903,"66":-0.194856280922394,"67":-0.16680803931961982,"68":0.40160508269320655,"69":0.15372980304735812,"70":0.1869865150780829,"71":-0.4225367908926295,"72":0.5540025508958834,"73":0.32219435966864163,"74":-0.6578971303315518,"75":-0.09102241207742649,"76":-0.3408219974184677,"77":-0.46565005633011963,"78":-0.455834349899585,"79":-0.10188639205589187,"80":0.18477922606265398,"81":-0.02092941567232032,"82":-0.6793649502108486,"83":-0.4197663060210481,"84":-1.1181613917593032,"85":0.43853113324782134,"86":0.7736514896094111,"87":-0.8610547950526392,"88":-0.08649393899675228,"89":0.11427148195838692,"90":-0.21015771612036496,"91":0.08904344940126602,"92":-1.0627189788009779,"93":-0.05890108445090157,"94":0.07834655158183056,"95":0.36769690268121735,"96":0.33684579614997257,"97":0.03987669358845984,"98":0.8241445012609476,"99":0.29009859293637136}},"14":{"bias":-0.10316989489138143,"weights":{"0":-0.3434715541040737,"1":0.38850814841460163,"2":-0.17290369121203333,"3":-0.3588010783173892,"4":-0.23912458248607302,"5":-0.3630451861134818,"6":0.15115655100473746,"7":-0.027144926049807023,"8":0.22362557393709517,"9":-0.254050661197758,"10":0.32527030132935464,"11":0.22104929715613186,"12":-0.8425190122643541,"13":0.00930060424719235,"14":-0.26754903826403587,"15":-0.35534679099430483,"16":0.3040670855548676,"17":0.26977027852164603,"18":-0.473301061979596,"19":0.09999047394211277,"20":-0.08502289065971298,"21":0.1950234921950268,"22":-0.7522266343747162,"23":-0.2160341470119534,"24":0.3878689037222773,"25":-0.6817556045477633,"26":-0.05397700001932867,"27":0.07561798485163831,"28":-0.06891430103209743,"29":0.12133869925779805,"30":0.044928235796787876,"31":0.5188402752364887,"32":-0.4162685437998565,"33":-0.13656398214245943,"34":0.23091461300122246,"35":0.49141306123708123,"36":-0.08712364424601074,"37":-0.22265617401425658,"38":0.4797380440082109,"39":0.20523352115059798,"40":0.234302335895806,"41":-0.202717562647644,"42":0.4282415866901574,"43":0.5689191395005493,"44":-0.2976625622365393,"45":0.08552453843524552,"46":0.02583502630386425,"47":0.11922069567600747,"48":0.34485640145802965,"49":0.39031138393227627,"50":0.4684699571028601,"51":-0.4496198067483778,"52":-1.0958376358878017,"53":-0.2753503053370522,"54":-0.7090631420974827,"55":-0.5065904337719809,"56":-0.3539623793622936,"57":0.32121495204366757,"58":0.6037919682199079,"59":-0.07476316511496418,"60":0.12743906220001172,"61":0.3920766526419081,"62":0.9758832316834911,"63":0.104941706893292,"64":-0.24598731135433455,"65":0.3117580419297613,"66":0.3556589403031828,"67":0.8801618144061626,"68":0.7246442425813086,"69":-0.1738204091718678,"70":-0.2121208145842445,"71":0.34837172341813916,"72":0.5196743206782817,"73":0.4593067185779533,"74":0.044085030478757156,"75":-0.823041980479026,"76":0.28612173315931366,"77":-0.10315514689246663,"78":-0.18318330753624393,"79":-0.11201434821983855,"80":-0.17177000771055875,"81":0.33243262488009845,"82":-0.543074194203788,"83":-0.44615361755323923,"84":-1.3282042058058774,"85":-0.005550881345536008,"86":0.14475670500514662,"87":0.17489270211153565,"88":0.4004150886691812,"89":-0.22285738044071463,"90":-0.05109609026587726,"91":-0.19540878052557914,"92":-0.42209701688695483,"93":-0.14340828574462813,"94":-0.4018862283924116,"95":-0.40836173992498387,"96":-0.0756139488678743,"97":-0.3840284522499606,"98":0.09507268433035142,"99":0.1582441831093622}},"15":{"bias":0.2554337248084676,"weights":{"0":-0.3276268447198795,"1":-0.1282996826451084,"2":0.02905646812638296,"3":-0.5589828160394942,"4":-0.7762201641043979,"5":-0.7734855442403062,"6":0.5066421914387338,"7":0.1546506622696002,"8":0.11054038164099449,"9":-0.2561864104068897,"10":-0.29023658949633047,"11":-0.7808878650844064,"12":-0.012316069352875972,"13":-0.16788008167638963,"14":-1.2958427157302992,"15":-0.992723076452552,"16":0.2417304808477579,"17":-0.19733470161329958,"18":-0.06368202804820834,"19":-0.05721611923108219,"20":-0.8472251017150125,"21":-0.6596901873792241,"22":-0.04595797766262462,"23":0.0356345737846197,"24":-1.1213639428828917,"25":0.1527634869157135,"26":0.09231486476932764,"27":0.11534095099331607,"28":0.2576762302722663,"29":-0.35475831150345755,"30":-0.014906541314892564,"31":-0.2495314439815146,"32":0.04007521962504434,"33":-0.6807798191298454,"34":-1.3936480676103171,"35":0.6298408343166622,"36":-0.9608420350225335,"37":-0.41919638289950967,"38":-0.1423811324987594,"39":-0.5158561130898605,"40":-0.34032551494678565,"41":-0.6742896329797939,"42":0.0731547350903773,"43":0.9827975949728252,"44":-1.9688368517899524,"45":1.5302125305992904,"46":0.048939469194517166,"47":0.11842290616966944,"48":0.41033691485558416,"49":-0.13833666023791882,"50":0.10355217391853613,"51":0.29764046345438877,"52":-0.5305713799171504,"53":-0.3536173024625238,"54":-0.5004599473919105,"55":0.3501014666064076,"56":-0.23747776239995994,"57":1.0392457898237928,"58":0.36848130341648383,"59":-0.4665252073178144,"60":0.2724430750630447,"61":0.7515258035232577,"62":1.867491024021035,"63":-0.42087974641143844,"64":-1.3191480793217278,"65":1.105179201689035,"66":0.9309091881951839,"67":-0.13801781549654638,"68":0.10873178987297545,"69":0.0762706940450822,"70":-0.24121188841425445,"71":-0.5702796305760445,"72":-0.39419573302260763,"73":-0.05693641518632011,"74":-1.0656633225872107,"75":-0.5296826889961549,"76":0.4231723398135699,"77":-0.8955316551729757,"78":-1.0794929821046035,"79":-0.36824492217515725,"80":0.11308652158542368,"81":-0.19005488647032062,"82":-0.6802351391777544,"83":-0.47784032569463114,"84":-1.0965355154453278,"85":-0.1853680931431333,"86":-0.17665719074863662,"87":-0.9983611445394793,"88":-0.1412687292166515,"89":-0.4793817517141562,"90":-0.011460426924624192,"91":0.17788242486001943,"92":-0.16097057205536508,"93":-0.04012828608508078,"94":-0.6394485790549869,"95":-0.46268956772549175,"96":0.13083669879306015,"97":-1.3256492165609164,"98":-0.027832989788381682,"99":0.14322928756640715}},"16":{"bias":-0.6533431042859651,"weights":{"0":-0.058257156561570905,"1":0.162473695628299,"2":0.5340804736257314,"3":-0.36155086746095105,"4":0.13440875386402068,"5":-0.16737119559808378,"6":0.4226873869484565,"7":0.12883618859044074,"8":-0.24431230177045943,"9":0.16116543939577294,"10":-0.08576282674650862,"11":-0.13072013473449698,"12":0.9917945150470087,"13":0.7528799301831727,"14":-0.38576127698389523,"15":-0.2867002001375973,"16":0.1607808367471935,"17":0.1362064498851798,"18":-0.26433562954814716,"19":0.11157776805855847,"20":-0.3657556295900806,"21":-0.07995552396056707,"22":-0.8862094168246409,"23":0.05783610996010489,"24":-0.12952410685826718,"25":0.10225115777004,"26":-0.14089438708972252,"27":0.2998759986705139,"28":0.17682104247154926,"29":-0.08004168972958423,"30":-0.9000643129522874,"31":-0.05458197847743081,"32":-0.42822108508640017,"33":-0.6232472287465259,"34":0.22318207529023795,"35":0.15257708676736928,"36":0.9448793437505443,"37":0.43379188888115244,"38":0.428589928281263,"39":-0.2878847234272867,"40":-0.5579796729245197,"41":0.05477956076293266,"42":-0.026984048847966315,"43":-0.49541675694634213,"44":-0.5102467990388004,"45":1.090145150370114,"46":0.3761753497108098,"47":-0.5563253474881715,"48":-0.09794752142502659,"49":-0.1319793700584879,"50":-0.31654879969381694,"51":-0.242643763382554,"52":0.054807234830420694,"53":0.558642062267783,"54":0.9310884345484648,"55":0.01296573912775239,"56":-0.8011444002706345,"57":-0.4927289409506347,"58":0.4362048834937429,"59":0.4960193727099501,"60":-0.3504107697826127,"61":-0.6528120848151052,"62":-0.11867745807529273,"63":0.23973654779175313,"64":0.30365807875764955,"65":-0.09436370404163104,"66":-0.08542427699470856,"67":0.2528192247896598,"68":-0.2885959461327958,"69":-0.12561402009645553,"70":-0.0581544569906584,"71":0.2887373804803149,"72":0.414439844167327,"73":-0.14244272343876385,"74":-0.3789135809073308,"75":-0.2395825886854567,"76":-0.2995909954749397,"77":-0.909949997302971,"78":-0.7225093306111309,"79":-0.7511151939073172,"80":0.013374008142551599,"81":0.9681117352731402,"82":-0.16372618566090646,"83":-0.430272624040714,"84":0.4736167545203344,"85":0.11049583557586577,"86":0.17681694494201927,"87":0.17758374591700896,"88":1.1325506683782607,"89":0.3248969334763079,"90":0.1647190738213156,"91":0.6801617959563012,"92":-0.38267118891672736,"93":0.12762610074371225,"94":-0.015572133372581117,"95":-0.05689128973402168,"96":0.33291515029999647,"97":0.1024552291509833,"98":0.3590556450486448,"99":0.01692778306479252}},"17":{"bias":0.6541063537572873,"weights":{"0":-0.04748446072633163,"1":0.32351569056858726,"2":-0.02528573264150618,"3":-0.019980901895878887,"4":-0.20871351190660192,"5":-0.1986194916104221,"6":-0.0016621426791222263,"7":0.48214870313566777,"8":0.22379626882979672,"9":0.14240232847899564,"10":0.24956755148884122,"11":-0.02068783812349405,"12":-0.023553760418241875,"13":0.29971191456224167,"14":0.1758087287487037,"15":-0.26534394185407373,"16":0.027430936212491895,"17":0.22416634118129225,"18":-0.2218346652524577,"19":-0.196292744885912,"20":-0.4466739048647667,"21":0.006497746939185299,"22":0.32566746366923505,"23":-0.4157697779633161,"24":0.08818235374785396,"25":-0.40842369894725133,"26":-0.603245762341278,"27":-0.1909808595112564,"28":-0.740945361899867,"29":-0.4720391226844464,"30":-0.061492661196127424,"31":0.33269111459614237,"32":0.023002847232419327,"33":-0.45365419227389836,"34":-0.494413803737344,"35":0.06460453090149024,"36":-0.02243362555806022,"37":0.0046430970952208266,"38":0.09651875465500662,"39":-0.059496251964028586,"40":-0.2789812718584084,"41":-0.5664740919122846,"42":-0.0785426220792473,"43":0.3454000938320216,"44":-0.6746786129496257,"45":0.32473591991628137,"46":0.5746634734372069,"47":-0.002131864182079594,"48":-0.13869949279806862,"49":-0.1241781119597138,"50":-0.08207409290649145,"51":-0.6067140579071794,"52":-0.2317744240184583,"53":-0.3750880042254369,"54":-0.9215449371267377,"55":-0.22555843681552984,"56":-0.5015975853843784,"57":0.29159722558948536,"58":0.04874659739970527,"59":-0.19419013681658767,"60":0.27088915369831207,"61":0.6521264258385565,"62":0.8043739515728173,"63":0.3117406428551358,"64":-0.61399419213741,"65":0.1753296944566766,"66":0.15288044056044547,"67":-0.1580002583249362,"68":0.34711214803068113,"69":-0.4239181094238021,"70":-0.13056983125144922,"71":-0.08860238703400222,"72":-0.11423087229066359,"73":0.3626411721325739,"74":-0.8568906705917226,"75":0.2540889032280425,"76":-0.2889680927260084,"77":-0.46259540417593414,"78":0.1937426385002698,"79":-0.2751230780024689,"80":-0.09978935812391998,"81":0.18467258496718847,"82":-0.691263487511107,"83":-0.6982439706340571,"84":-0.7211062212205489,"85":0.08307639504342847,"86":-0.5048324795812054,"87":0.15930240718945204,"88":-0.1748951636756311,"89":-0.2434754032415328,"90":0.13389957809066433,"91":0.3683417452287646,"92":0.42484782294562135,"93":0.3196381165566506,"94":-0.1697748113709221,"95":0.019800170530195872,"96":-0.07172999663647418,"97":0.3413944528507633,"98":-0.8711493066837546,"99":-0.15259717527077996}},"18":{"bias":0.29989441954617585,"weights":{"0":0.3388320374766335,"1":0.36098498573051047,"2":0.049325562815385145,"3":0.18735398555383145,"4":0.4479634388159896,"5":-0.13016959090354419,"6":-0.8260842478329121,"7":-0.3058619419602336,"8":-0.26566667653949644,"9":0.36991806353530526,"10":-0.17964708955645256,"11":-1.0092075024981615,"12":-0.26753170128002735,"13":0.7841031313168496,"14":0.48369163075284716,"15":0.1520639828889944,"16":0.07227186459073666,"17":-0.029006266644671125,"18":0.8139705385444529,"19":0.4926667301618685,"20":-0.8382882220925078,"21":-0.308624229240444,"22":0.6359394642177167,"23":1.0905378308834535,"24":1.6829797021672923,"25":0.7714908377851187,"26":0.07267676124752928,"27":0.22441356408650606,"28":0.5410774113435252,"29":-0.2076695079742758,"30":-0.9514507998992077,"31":0.48093528711778144,"32":0.06130006261710904,"33":-0.2731790220471029,"34":-1.784376413348,"35":-1.240605693762729,"36":-0.5555389043660018,"37":0.12113155218231808,"38":0.29402391677956285,"39":-0.3928250126327634,"40":-0.38375075828641253,"41":-0.04828826264460265,"42":-0.5233439415482266,"43":-1.2632820956802915,"44":-1.6533157426774565,"45":-1.262354463777618,"46":-0.4407206295661425,"47":0.1395251325735925,"48":-0.7328934742252913,"49":-0.4301969655286074,"50":0.2494520294707882,"51":-0.5640279825258059,"52":-0.22752736001351048,"53":0.044437071813003604,"54":-0.06497046356919955,"55":-1.442610656748915,"56":0.19679174908746444,"57":-0.07655744160394395,"58":0.40116733425414497,"59":0.33299622545532925,"60":-0.13934722378925699,"61":0.7521129230154637,"62":1.0092522976213367,"63":0.12513189560772967,"64":0.34301460618064994,"65":0.7696394186796236,"66":-0.004937212662526591,"67":-0.04819480397195821,"68":-1.2723428002077213,"69":-0.405071739719398,"70":-0.7402260271092204,"71":-0.09061333552495049,"72":1.2186268281881965,"73":-0.06679317018809938,"74":-0.43653419167779167,"75":0.17789760830393303,"76":-0.11265874081841833,"77":-0.15806260194252877,"78":-0.29275667532230976,"79":0.2260967565871648,"80":0.43414031743136655,"81":-0.18601996313102825,"82":1.2058894015514163,"83":0.5711733920992236,"84":-0.5228422484191718,"85":-1.194506759543484,"86":-1.2979454840400566,"87":0.7799180307491689,"88":1.0960907094635473,"89":-0.06010732445174281,"90":0.2841550646290396,"91":-0.07853188735339275,"92":-0.4607417521603933,"93":-0.5856242782593076,"94":-0.5111043201601119,"95":-1.1736618150509412,"96":0.03470994336648083,"97":0.055793730678143465,"98":-0.33237175682244346,"99":0.17315571695403356}},"19":{"bias":0.960983723939822,"weights":{"0":-0.37186869402130296,"1":0.011537111329630746,"2":1.2486680589158827,"3":-0.427341935869558,"4":0.4677965354840335,"5":-0.43123680433931333,"6":0.16391383714625574,"7":-0.8933313462947401,"8":-0.8933173611439009,"9":0.08480917175377678,"10":0.3543052637469359,"11":-0.07768011857220344,"12":1.0924428842173401,"13":0.39882214577987163,"14":-1.0735168480662247,"15":0.07936573867656338,"16":-0.6602000646386568,"17":-0.8740726723908065,"18":-0.6903918433155591,"19":-0.8355435592327154,"20":-0.6385225786683634,"21":-0.4319926323122258,"22":-0.35838136702411766,"23":0.5770902027859752,"24":0.5529879912550999,"25":-1.9138577858839105,"26":-0.8911776837234268,"27":-0.7757796390143522,"28":-0.3393956559627693,"29":0.5756361019164943,"30":-0.4316217461149177,"31":-0.5154246426571346,"32":-1.4507357557689438,"33":-0.8701196781153189,"34":-1.6765339344573518,"35":-0.5740426237995322,"36":0.10734700704164113,"37":0.9123505678418992,"38":-0.7574897316469037,"39":0.009476204503733756,"40":-0.7627077563401597,"41":-1.4100437750867583,"42":-0.6384485983443651,"43":-0.16912646176018012,"44":-1.2305454221524155,"45":1.1671136382156668,"46":-0.5451210953996374,"47":-0.28613489474430026,"48":0.8352014207643883,"49":0.17160106768172104,"50":0.09568958033886281,"51":1.1853287679698745,"52":-0.8146024397799566,"53":-0.7271683145046984,"54":0.7561084056355448,"55":1.3918666135367672,"56":-0.056647191870335074,"57":0.11474879922270544,"58":0.48598067351246954,"59":-0.06372801224783294,"60":-0.2183888521867045,"61":-1.146937049232591,"62":0.5523773781624536,"63":-0.273300643782818,"64":0.7858377132158195,"65":-0.20965825120586484,"66":-0.1130563888639151,"67":2.001994537413751,"68":0.711091778717649,"69":-0.2933914133179653,"70":-0.5957368804671412,"71":0.060717582738509794,"72":0.5099069666848289,"73":-0.5848787450985115,"74":0.4817485681072506,"75":1.367540166435773,"76":0.28470545026916366,"77":-0.47543744341557026,"78":-0.30702230185308316,"79":-0.23039913116049512,"80":0.6843078233430017,"81":0.7949803127276287,"82":0.4693291987129651,"83":-1.013528111381018,"84":-0.3336138103876012,"85":0.14234727455912158,"86":0.7814639960942276,"87":-0.05997777307787878,"88":0.8755150763595544,"89":0.3155569213123746,"90":1.1041166730926344,"91":0.6125185052742317,"92":0.11069528548823623,"93":-0.0853965373389576,"94":-0.7909572492609634,"95":0.3860189895738326,"96":0.5561512141254173,"97":-0.580528270331971,"98":0.042844993522115675,"99":-0.30541313999204084}},"20":{"bias":0.3734026716377131,"weights":{"0":-0.33622102948690386,"1":-0.06950667105960912,"2":0.3077908881921643,"3":0.10219400555842026,"4":-0.050576493467945426,"5":-0.1862005057337071,"6":-0.2705301920361256,"7":0.08712240899160642,"8":-0.2628094665610917,"9":0.2393669493808494,"10":-0.5474035274179291,"11":-0.30322154368060744,"12":-0.18728784794964337,"13":0.26295723315310654,"14":0.6757972413357966,"15":0.4164803978310119,"16":1.028328297403841,"17":0.7502097330384851,"18":0.4343698033595695,"19":0.2472856118811377,"20":-0.4711267867316756,"21":-0.016437892500502062,"22":0.11790962882080838,"23":0.37580493686876465,"24":0.42740657826093265,"25":-0.44713414505274035,"26":-0.9733404414383987,"27":-0.43389024142610944,"28":0.1668138362724216,"29":-0.01882943747650291,"30":0.41808008092659715,"31":0.4082143975772065,"32":-0.6525454269658775,"33":0.2247988083559115,"34":-0.41425579217679886,"35":-0.2378252797016184,"36":-1.0306049046612584,"37":-1.0487447787499822,"38":-0.5735642989595742,"39":-0.43044012709448026,"40":0.36127059131105527,"41":-0.7874100408572775,"42":-0.5062415691059345,"43":-0.4707013916072777,"44":-0.6918664269314815,"45":0.5446257190437487,"46":0.4440035574965581,"47":-0.4202610678407432,"48":-0.959202963494093,"49":-0.033994195595859145,"50":0.6939437269272413,"51":-0.7806746700134848,"52":-0.31807870843742003,"53":0.5843700695853256,"54":-0.9895517506358661,"55":-0.5131411004185986,"56":-1.015993148148562,"57":-0.7393739266266023,"58":0.15931637091445638,"59":-0.468096520397116,"60":0.3119377767218804,"61":-0.3373036152250037,"62":0.28181755310410145,"63":0.11813455197558756,"64":0.6007337698285746,"65":-0.5871037296880003,"66":-0.7608707428617197,"67":-0.14489413637444576,"68":-1.084167868218895,"69":-0.6547352031539324,"70":-0.30093155056981025,"71":-0.14752610415372774,"72":-0.04037695207756396,"73":0.25522009702614945,"74":0.21872171320516767,"75":-0.4820477294108483,"76":-0.30005206106237226,"77":-0.13588453205401513,"78":-0.34128086578956096,"79":-0.02515033652992048,"80":0.312547417538819,"81":0.4283778506216021,"82":0.4891431723702581,"83":-0.11246807543992908,"84":-0.3559437983643791,"85":0.20892758488144686,"86":0.301470573926142,"87":-0.09838456663465464,"88":1.08335911926774,"89":0.2147077159145434,"90":-0.16121553836412075,"91":0.022605708001638053,"92":-0.9423187632307943,"93":-0.696378800194021,"94":-0.5591001825265447,"95":0.1258632321767293,"96":0.4132889147589185,"97":0.7927893445979226,"98":0.864198998088347,"99":0.7960871650033773}},"21":{"bias":-0.6569901361716634,"weights":{"0":-0.1909813445313428,"1":0.49020114540794885,"2":-0.6472245098044577,"3":-0.06146959577655775,"4":0.4729489685645932,"5":0.43395577569494115,"6":-0.2221084823569374,"7":-0.21637979694363296,"8":0.46623741832461557,"9":0.11621217502009228,"10":-0.2618914446876296,"11":0.3098542564805792,"12":-0.5539379206672026,"13":0.3495856552668854,"14":1.113607228876818,"15":0.6380680207798188,"16":-0.010339416130429869,"17":-0.8566738854622148,"18":0.2827797244607747,"19":0.4676615428649781,"20":-0.5604438761829739,"21":0.38801455869302637,"22":1.1386895467967322,"23":0.25823132241450786,"24":-0.45975634255530495,"25":-0.2671110599472471,"26":1.0743751994417856,"27":0.01427303672093347,"28":-0.2171086419889535,"29":0.3749839252731458,"30":-0.12392413778381682,"31":0.49820598618580286,"32":2.149932693347838,"33":0.3801646769470311,"34":0.5543315017638267,"35":0.07158284522461963,"36":-0.3718258323082698,"37":0.03829195704849081,"38":0.18700751228267157,"39":0.020429789935559495,"40":0.2041361968213495,"41":0.5955945511970416,"42":0.36523624043762615,"43":0.6366434044549598,"44":-0.04292272288438903,"45":-0.7393292597563585,"46":0.025186427675598564,"47":-0.3964773585897182,"48":-0.10814788545525428,"49":0.26019259197051686,"50":0.22884203150924887,"51":0.9748313271427915,"52":1.048682199766963,"53":0.48752772123156596,"54":0.3884929996976313,"55":-1.0584009762411863,"56":0.7824241133925195,"57":0.45065487113544284,"58":-0.15047771350802822,"59":-0.005772191245946997,"60":0.24398591676538495,"61":1.4690683950126182,"62":0.9169987807094605,"63":-0.9130963602663232,"64":-1.072078140629091,"65":-0.08044208241581716,"66":0.9138651265472963,"67":-0.5448739525041452,"68":0.643559603648398,"69":-0.007960986209341296,"70":-0.41500061708738384,"71":-1.1538531401781082,"72":-0.6801024097688046,"73":-0.7493355091461669,"74":-0.578695683758743,"75":-1.125034685615121,"76":0.7570216952420485,"77":-0.22207421065088842,"78":-0.20998197304374816,"79":0.47855398329643045,"80":-0.34150294445176355,"81":-0.3955793898984133,"82":-0.8023798074533293,"83":-0.6103215214795501,"84":-0.2462229500299303,"85":-0.21113907725506237,"86":-0.19747130978315094,"87":-0.057122134708044746,"88":-1.1188702583417591,"89":-0.6920265274606622,"90":-0.054872772791775035,"91":0.1096968739986445,"92":-0.25723284654290135,"93":-0.03925086318362913,"94":-0.491440837847345,"95":-0.5702232962949161,"96":-0.20899412423028144,"97":-0.3463201181807024,"98":-0.5666606770880813,"99":-0.2960166257348422}},"22":{"bias":-0.37510929532889786,"weights":{"0":-0.42122409236532804,"1":-0.38139345954667775,"2":-0.9006698887555403,"3":-0.2708185339144772,"4":0.3681847831433543,"5":-0.42127653228947165,"6":-0.5942581259079726,"7":-0.05820029604301092,"8":-0.17885712852286512,"9":-0.14523367882629945,"10":0.07088151363043135,"11":-0.5162307682259978,"12":0.35037806749093225,"13":0.6003701762811724,"14":0.02261885213634791,"15":0.40012319140969166,"16":0.4995623140303403,"17":0.5759798674993791,"18":-0.707513161953633,"19":0.1424725605686319,"20":-0.9908549148805001,"21":-0.13029686949445546,"22":-1.1508633216678152,"23":-0.12507341975080827,"24":-0.25353740625846727,"25":0.49814582797057383,"26":-1.0817539404210745,"27":-0.033161224608563,"28":-0.8194672846469068,"29":-0.3100124360742508,"30":-0.4838045576863983,"31":0.8742290348528534,"32":0.09099666453921457,"33":-0.197944912712166,"34":1.2595383032679426,"35":1.0420296836429461,"36":-0.26547569793511716,"37":1.1802532511357602,"38":0.24862586952549223,"39":-0.39021131016793753,"40":-0.06165157993242184,"41":0.33638756749155113,"42":0.28584660862263445,"43":-0.25198054601152825,"44":-1.1539769655305627,"45":1.3273123719834032,"46":0.16092495417225886,"47":0.718200483484384,"48":0.08728519107393744,"49":-0.5841954466885572,"50":-0.4854191261885657,"51":-0.2854468856527124,"52":0.8742787476462477,"53":0.6452342530203151,"54":-0.26464950934341336,"55":-0.7724053775444069,"56":-0.7147369500500117,"57":0.34176450572255956,"58":0.1790318463159574,"59":0.30262198947088015,"60":0.1270537607092137,"61":-0.28450889570383486,"62":0.3418211846111376,"63":0.25928143836528306,"64":-0.3169875405325592,"65":-0.4542362659206465,"66":-0.5026674633467091,"67":0.5093576121077337,"68":0.1690777613792097,"69":0.02518816818283304,"70":0.20443788426857284,"71":0.018920348452324987,"72":0.07028208976322929,"73":0.21797062498250178,"74":-0.42210821297761697,"75":0.21477796015927456,"76":0.387460021644325,"77":0.3977545814649233,"78":0.026891496572879755,"79":-0.37315679057488665,"80":0.31042102795166926,"81":1.059966371313682,"82":-0.08145535337866562,"83":-0.8044273136181882,"84":0.40500955935338695,"85":0.594499589350487,"86":0.4574242819490568,"87":1.1554575344760336,"88":1.0087720664072521,"89":0.13919014648416186,"90":-0.0714199001168115,"91":0.5198434870891615,"92":-1.0401882659891541,"93":0.1283120700830607,"94":-0.5561854592146452,"95":0.007312034154112462,"96":-0.23535254696385458,"97":-0.0638096469411593,"98":-0.08364692601312983,"99":-0.10526589612468681}},"23":{"bias":-0.9148743442058032,"weights":{"0":0.211086384842786,"1":-0.0278644069135276,"2":0.658709027835888,"3":0.8641278332567718,"4":-0.546562934151387,"5":0.7271367005239225,"6":1.0615520953859252,"7":0.8431745094866273,"8":0.6055418895554022,"9":-0.12018599365327806,"10":0.3104794190096462,"11":-0.4912856936211501,"12":-0.266223180000331,"13":0.3050038186609605,"14":-0.017751272500695064,"15":-0.32190099151751395,"16":-0.1051062712928016,"17":0.7937704870708151,"18":-1.0241929730156931,"19":0.027173786049798962,"20":-0.1596580263419203,"21":0.8283785435760083,"22":-0.7596450038198622,"23":-1.3039808479117305,"24":-0.3507151538124132,"25":0.625110571109577,"26":1.2995182038582203,"27":0.14869342130358296,"28":-0.7317153679505306,"29":0.6114976740855091,"30":0.02986316331680195,"31":-0.46202871614919583,"32":0.23307447410576262,"33":-0.03742262450733738,"34":0.6661421645355496,"35":1.1512798836547002,"36":-0.6155521555958335,"37":-0.6938041601839763,"38":-0.7086635924602143,"39":0.5145414711882251,"40":0.7441008670465841,"41":-0.24832321593215753,"42":0.6740985362201296,"43":0.5959413481873257,"44":1.2198345225770484,"45":1.1532163952485572,"46":-0.26262748689648974,"47":0.1632772493320515,"48":0.12019701717127558,"49":0.2431993953019459,"50":0.7008033938190557,"51":-1.8221241069990175,"52":-0.20737479693370792,"53":0.17562926221878414,"54":-0.5284605711331929,"55":0.38600629495758815,"56":0.7503449748956947,"57":-1.3557029201355946,"58":-0.5693856728686147,"59":-0.19329044782955251,"60":0.6848149627480908,"61":0.5557867834468262,"62":-0.8527962268910498,"63":-0.4081007903905011,"64":-0.7626743372038068,"65":0.09865521739810307,"66":0.1557564678326697,"67":-0.2200019274012995,"68":1.1625425681109984,"69":0.3218872072685308,"70":0.6868805651403351,"71":0.6451542428965729,"72":0.6011890661476773,"73":0.02548437366963012,"74":-0.5511108617247482,"75":-0.15101740387820736,"76":0.5623248760232488,"77":0.48985774665604515,"78":0.97204959168626,"79":0.394204959457113,"80":0.054101451163834295,"81":1.250997265622323,"82":1.022471370875041,"83":0.3417115270968303,"84":0.6251471075020641,"85":0.1727351015960682,"86":1.4911791376250434,"87":0.6776123983541864,"88":0.4101780243627817,"89":0.1234521995549365,"90":-0.06529898953657046,"91":-0.1153084765949885,"92":0.21173290795703725,"93":-0.05530961255928063,"94":-0.48619496537849255,"95":-0.23063665686033102,"96":0.5060340351583966,"97":0.41221351006024753,"98":0.18698887287112417,"99":0.3718882059952758}},"24":{"bias":-2.190988384133961,"weights":{"0":-0.028653201291481505,"1":0.08707341035184701,"2":0.38156592330370165,"3":-0.24591862083614777,"4":-0.7614421090609861,"5":-0.23610334449866074,"6":0.8091402771953955,"7":0.17544389737609428,"8":0.631749580628032,"9":0.5412687891291057,"10":0.028844665785519242,"11":0.30969063242366507,"12":0.6777885796367059,"13":0.12580744824987986,"14":0.26455774268234206,"15":-0.48729459839063505,"16":-0.38841766584510085,"17":0.6029419204420953,"18":0.08756297666385221,"19":0.5516037522092806,"20":-0.10481773305394444,"21":0.9943465122714328,"22":0.5989823487861117,"23":0.04340077268814215,"24":-0.1496854867300502,"25":0.04692005200992726,"26":0.23859519440406513,"27":0.38280143690437723,"28":0.3149977065534182,"29":1.0901105614267494,"30":-0.41710681695090424,"31":-0.4574146999806993,"32":0.1556295182776419,"33":0.22665683772668713,"34":-0.7932739048977797,"35":-0.25626068686057857,"36":-0.6269314891131955,"37":0.10783338966983201,"38":-0.3565723086795997,"39":-0.08938293145002739,"40":0.8727401078384078,"41":0.19993471886340186,"42":-0.28853464128993234,"43":-0.6776949811769684,"44":0.6301738694175989,"45":0.2211154893282406,"46":-0.8958099446964248,"47":0.03898714661461431,"48":-0.20918663975408433,"49":-0.47184650709691456,"50":0.28914831463723606,"51":0.34384235073500546,"52":-0.1411107964586499,"53":0.33826036987824715,"54":0.4108939581881557,"55":0.7319609959997299,"56":0.9467846123858632,"57":-0.1072581784080736,"58":0.5306342616118551,"59":0.28056656018090176,"60":0.5058410945469817,"61":0.9734166417263066,"62":1.084573598805338,"63":0.42735565913959317,"64":0.9991775053399728,"65":1.4740985407749434,"66":1.356318332338194,"67":0.7532625661737323,"68":0.4644344036796367,"69":-0.0171917321348347,"70":0.3407924295817825,"71":0.48784589118582955,"72":0.05532519671315881,"73":0.644032660172787,"74":0.33655025646517855,"75":-0.9701443058657323,"76":0.6875797618153311,"77":1.1675494394393302,"78":0.20315917697213995,"79":0.2622014296785616,"80":0.07708160295043727,"81":0.35947864499878074,"82":0.043473078729648125,"83":0.3430148887812553,"84":-0.059887175412580165,"85":0.3331872270201187,"86":0.8488099133399469,"87":-0.36198527227005356,"88":-0.3474319353397661,"89":0.22997723735169007,"90":-0.09742955292664893,"91":0.7304475352449263,"92":-0.06974973104975549,"93":-0.5495674146040126,"94":0.3257621786820764,"95":0.32656523416332967,"96":0.3437724042123103,"97":0.11000448500852655,"98":-0.14528065453306346,"99":-0.036082850150056064}},"25":{"bias":-0.6314481165579817,"weights":{"0":-0.9777578671310521,"1":-0.03852467992748278,"2":-0.303839157575681,"3":0.1403906911129042,"4":0.3503707302410196,"5":0.22091876415249753,"6":-0.14952675825781223,"7":-0.12944624053668843,"8":-0.2113690065584108,"9":0.08183145814125754,"10":-0.28187783298332225,"11":0.5592194744737709,"12":-0.23766967406533906,"13":0.12606653079910154,"14":-0.23714263752070458,"15":0.03269221819311062,"16":0.6578148533290219,"17":0.018074529317182904,"18":-0.4678476216018301,"19":0.022571525501500808,"20":-0.8753866686656333,"21":-0.6049170747535256,"22":-0.11310263092439883,"23":0.22088307072769542,"24":0.5802623495889104,"25":0.2071485126510649,"26":-0.16354801443910627,"27":-0.7831875260042878,"28":-0.4199751110856051,"29":0.3438708570586729,"30":0.4063981459912946,"31":0.12714447690496047,"32":0.9008902496335629,"33":0.010688389954495761,"34":0.12720567233895624,"35":-0.4256681034996776,"36":-0.18974826693984134,"37":0.132892884759436,"38":0.0478839939833826,"39":0.263693573667633,"40":0.019250626125086524,"41":-0.1958207868073209,"42":0.2943789255739781,"43":0.9168153637859848,"44":-0.15268418205118847,"45":-0.5737914820727676,"46":-0.26317935330149184,"47":0.03461177768171042,"48":-0.2668062898942604,"49":-0.01139287948498761,"50":0.2591326152288801,"51":0.7515914689014005,"52":0.8423791606394115,"53":0.24784063021402786,"54":-0.9541050622910084,"55":-0.14796422271061027,"56":0.7415032751916906,"57":-0.638566565369753,"58":-0.6368559453413488,"59":-0.4148536576332091,"60":0.3320731671780989,"61":-0.5008565392191301,"62":0.8666486973565851,"63":0.6730851350740219,"64":-0.3452195794742931,"65":-0.1343941556603232,"66":0.2753833447133739,"67":-0.008977338276005352,"68":0.019325017917441418,"69":-0.11033259661583994,"70":0.16194654575497966,"71":-0.2441041127890212,"72":0.7620659659094474,"73":-1.2170069658767315,"74":-0.7550877396706778,"75":0.22654394946840264,"76":0.18784156275538144,"77":0.07026337500908295,"78":-0.10570116726669448,"79":0.23766156167212588,"80":0.18186440278893523,"81":-0.8909412362807411,"82":-1.1353794361216614,"83":-0.3655482956442543,"84":0.051914246256103545,"85":0.07844617053624732,"86":0.564704803630564,"87":-0.24008088262866573,"88":0.1806609350256163,"89":-0.16336587883576845,"90":0.2050814657961937,"91":-0.15333128280345323,"92":-1.0303667067299227,"93":0.0837180131394342,"94":-0.5611637149091383,"95":-0.06450136556344142,"96":0.4511339233194766,"97":0.29077975778058446,"98":0.10190939532854999,"99":-0.13516575644502538}},"26":{"bias":0.273252915972293,"weights":{"0":0.2831946529560469,"1":-0.002576659870369287,"2":-0.4494045989103301,"3":0.2747088880525892,"4":-0.022750794463170396,"5":0.6789771814989091,"6":0.31937943022177245,"7":0.11453307232344205,"8":0.18062974606126517,"9":-0.1143312959082594,"10":-0.17263558928945016,"11":0.20521433049973475,"12":0.5227255711878088,"13":-0.2828067949864531,"14":0.2840572848615742,"15":-0.502787044269593,"16":0.20642486568784477,"17":-0.09536621978993547,"18":0.4379953665072084,"19":0.26978268322381976,"20":0.7722301786814785,"21":-0.5369734329826865,"22":1.4370355576184481,"23":-0.4309894604774204,"24":-0.40012181389849616,"25":0.07685244181281317,"26":0.10640714094100712,"27":0.6216853834402497,"28":0.5345844897232787,"29":-0.29459119823773444,"30":0.8365794260228068,"31":0.05107218642415853,"32":1.0219817468524983,"33":-1.1337596504968337,"34":-0.5428946511802811,"35":0.6945953160840047,"36":0.4375744582327518,"37":0.6906171529988651,"38":1.2207578774158465,"39":0.49067194271375075,"40":0.07787496012853079,"41":-0.2353835346422087,"42":-0.1680737925162033,"43":-1.22132278409126,"44":-0.5127281391203219,"45":0.5471227239764378,"46":-0.676659869968642,"47":-0.2593143924357391,"48":0.6643367531335957,"49":0.34336194215370247,"50":-0.1542463924232863,"51":-0.15048627219176636,"52":0.010158553975182377,"53":-1.0563371223468838,"54":0.021265491800288295,"55":1.6914872473127573,"56":0.0645032405455106,"57":-0.6014635976111564,"58":-0.14034447300779776,"59":0.08636899049245401,"60":-0.08220677215351392,"61":-0.03272085106872015,"62":-0.42786595374009995,"63":0.04473749621492095,"64":-0.4422959196593736,"65":-0.0596599610390524,"66":-1.0055902225637467,"67":-0.5045069116337798,"68":-0.13503953429226773,"69":0.1854077234787588,"70":0.021765104405200443,"71":-0.15859865996328246,"72":-0.6240001594851469,"73":-1.0188410615017653,"74":-0.48947513443686474,"75":0.39200345218584504,"76":-0.7738007354124288,"77":-0.7680115297220884,"78":0.07903290189094711,"79":0.1401430297730399,"80":-0.8015438369803728,"81":-0.5578820549549048,"82":-0.24730799292110534,"83":-0.544318483824018,"84":-0.5040998470898974,"85":0.1293556229541369,"86":-0.9337132430890868,"87":-0.39997133384824846,"88":-0.8465759763060298,"89":-0.44412503558807864,"90":-0.549629740326756,"91":-0.5899877205750198,"92":0.4715670881335944,"93":0.10006458245399126,"94":0.407708115404292,"95":0.878559245367723,"96":-0.8650526162344825,"97":-0.6285300815060155,"98":-0.8821672166037237,"99":-0.03036162630109838}},"27":{"bias":0.4203648119697111,"weights":{"0":-0.8564383434010641,"1":-0.2326889937528244,"2":-0.31222274133322403,"3":0.4703571658314586,"4":0.2518192645221193,"5":-0.04315727695922226,"6":0.11524927812628677,"7":0.09860075922039238,"8":0.24624010017057416,"9":-0.21826582001338438,"10":-0.44749281699300936,"11":0.8793808994661491,"12":-0.7291570992260815,"13":0.32908705838549446,"14":-0.12492267730370504,"15":-0.8873525246104537,"16":0.10497524075985062,"17":-0.3282387496222118,"18":-1.136976058981295,"19":-0.0623738593945588,"20":-0.15906307336221248,"21":0.08758813102028186,"22":-0.23127428345722384,"23":0.7985359871375824,"24":0.7774868204243279,"25":-0.22498598282114557,"26":-0.4388590658073788,"27":-0.278944098119936,"28":-0.8568754028139534,"29":0.447374768050966,"30":0.25905184491570554,"31":0.2625920453658239,"32":2.3219689089184943,"33":1.8094071862381262,"34":-0.102735120262417,"35":-0.35585510250547253,"36":0.6603025606722359,"37":0.23114067087576404,"38":0.554617899389247,"39":0.616854974585309,"40":0.3900399336148665,"41":0.6298237029553118,"42":2.0026435531799214,"43":1.2169034887623822,"44":-0.5788628397197144,"45":-1.23776516673711,"46":-0.2309960047171625,"47":-0.03901105671073997,"48":0.3042255072687918,"49":0.6588737463948672,"50":0.323054184395389,"51":0.6582179243071461,"52":-0.010080607756161224,"53":0.23531964048869985,"54":-2.148014217733414,"55":-0.25561161170492286,"56":0.06715610269189926,"57":-0.22248933474438218,"58":-0.1506510724643953,"59":0.16008985030190884,"60":0.5765458456433917,"61":1.2111963686545903,"62":0.26126407835366006,"63":1.0358232511403624,"64":-1.5262714903513952,"65":-0.5095411714869669,"66":-0.14568983461409618,"67":-0.7172313961518891,"68":0.6805549489706563,"69":0.8531963298686339,"70":0.21388376243568047,"71":0.48621761949690384,"72":0.7761852288979544,"73":-1.1610240262900473,"74":-0.10638324195701314,"75":-0.36592719071246543,"76":-0.4911607000384272,"77":0.08452574686303378,"78":0.7632405128363323,"79":0.7682980766420281,"80":-0.14563386597830033,"81":-0.06963992035987047,"82":-1.2833492459136622,"83":-0.1501606369694722,"84":0.0036181216763404773,"85":-0.26016438296308625,"86":0.26860274139663715,"87":-0.23248518657499131,"88":0.46197000242250347,"89":0.3933845311092655,"90":-0.03895950716712728,"91":-0.20364530380556883,"92":-0.15074211198666418,"93":0.5755757172857509,"94":0.7082259155119988,"95":0.9553687027252317,"96":0.9472218470718333,"97":0.9718902714256525,"98":0.01596520776889539,"99":-0.2540799138284798}},"28":{"bias":2.0784928391084407,"weights":{"0":0.24255704404939846,"1":-0.881082755661343,"2":1.2763936067712771,"3":0.7482843138121462,"4":-0.40405105633759986,"5":-0.7979754496102469,"6":-0.3960876668148532,"7":-0.13224939393065085,"8":-0.5118882679655935,"9":0.011461861370602261,"10":-0.1495387416005967,"11":0.3360408022154484,"12":0.5554074479641798,"13":-0.25162715638506167,"14":0.140345524221901,"15":-0.6406441611054706,"16":0.7850317523643509,"17":0.675670268523432,"18":0.24469218114001673,"19":0.03309883883348488,"20":-0.060969317315720827,"21":-0.818504186304996,"22":-0.26686289678910924,"23":-1.8979202154536055,"24":-0.6721916513454614,"25":0.9530256247477671,"26":0.5882690045546562,"27":0.7745933938213341,"28":-0.39883675346524583,"29":-0.2495377331664411,"30":0.7234265117337461,"31":0.528641299879389,"32":0.21083680195340607,"33":-0.8206735155488936,"34":-0.21118251750152467,"35":0.03069569876848342,"36":-0.6553995860264502,"37":-1.1033090170253166,"38":-0.8690370943771691,"39":-0.3147160027008118,"40":-0.32059263003373184,"41":-0.5443052107088553,"42":-1.879960964506006,"43":-0.11282128217240445,"44":0.6074876544916693,"45":-1.3494115891855338,"46":-1.3606427781545658,"47":-0.49738058041002087,"48":-1.1067493468639398,"49":-0.6224819568495089,"50":-0.07741569436654576,"51":-1.2100333208116465,"52":0.6924302014798669,"53":0.8025819302099867,"54":0.4045568828685853,"55":0.588670635206425,"56":-0.7880954452157605,"57":0.28734564383565203,"58":-0.7316924474898594,"59":-0.10883051847358281,"60":-0.3869301331614961,"61":-1.3390301352821508,"62":-0.48690750223243284,"63":-0.5440359872673904,"64":-0.7533933613409616,"65":-2.1373154601142983,"66":-0.38014773798727736,"67":-0.682121527462138,"68":-1.4637312431375131,"69":-0.6124291547131019,"70":0.20481572161254266,"71":-0.8278171749150899,"72":-0.6182026005366553,"73":0.7389060725431231,"74":-0.11284038180201972,"75":0.31674619923779224,"76":-0.32507086135499014,"77":0.18647730048007277,"78":-0.7544285031379654,"79":-0.1485567403377759,"80":0.346396200106354,"81":-0.36979260527767316,"82":-0.11041593027273505,"83":-0.03493887151162168,"84":-0.3961550284623576,"85":-0.34265095376358123,"86":-0.1428571927977342,"87":0.49069942732903793,"88":-0.36825356862271513,"89":-0.13328390191692743,"90":-0.2886911978803412,"91":-0.25867118703970005,"92":-0.4048398851287719,"93":-1.0226858472962241,"94":0.05608159183538763,"95":0.40012741591172707,"96":-0.3698425183668108,"97":0.12264359470027647,"98":-0.6792293607016855,"99":0.02104427341899376}},"29":{"bias":-0.18793473214852874,"weights":{"0":0.06233575986253542,"1":-0.21144463177580974,"2":-0.2898782074613137,"3":0.206743321269651,"4":0.45510816323718917,"5":0.04574088958363597,"6":0.28924848291833627,"7":0.17045022417414807,"8":-0.1409385966316712,"9":0.1763937495538481,"10":0.1432302933213122,"11":-0.11665983631248356,"12":-0.30881008569280766,"13":0.1191273579282339,"14":-0.9694713995886469,"15":0.831073086946127,"16":-0.9362707717583287,"17":0.756434568957431,"18":0.24423935695122276,"19":-0.08640830475943816,"20":0.02831932509606722,"21":0.32146929148665404,"22":0.31906515607054914,"23":1.250389094826655,"24":-0.03741855613197011,"25":-0.5302363973115634,"26":1.0172966541806683,"27":0.2642718400430634,"28":-0.6037186740728107,"29":0.29681696606213104,"30":-0.706772201920328,"31":-0.7424593111903685,"32":-0.5180015894102957,"33":-2.285783082993721,"34":-1.8009419149462245,"35":-0.6108292712142922,"36":-1.367030038040877,"37":-0.03929479742990924,"38":-1.0585102531739947,"39":0.1836094726697745,"40":-0.9785515812646728,"41":-0.16082417708727065,"42":0.7009828872794803,"43":0.38328620525131135,"44":0.3780906676874208,"45":-0.6530583304520811,"46":-0.883981790025762,"47":0.6225401867945072,"48":-0.26984169589954743,"49":-0.15899126888163204,"50":-0.36398038816844447,"51":0.01906265749388682,"52":-0.5070792395905147,"53":-0.7013068246875399,"54":-0.017215603208517213,"55":-0.5360699499016477,"56":0.0007853973470940697,"57":0.6088139712138178,"58":-0.49600185527038376,"59":0.34574255128602094,"60":-0.16866264127643352,"61":-0.03517538825254001,"62":0.21215570463914782,"63":-0.3993540270158261,"64":0.41243723475554217,"65":-0.541568594540062,"66":-0.16829232627682894,"67":0.35282315222532495,"68":0.6088423937527836,"69":0.6461821717643135,"70":-0.14755720333538533,"71":-0.07828468126025154,"72":-0.20880038898668934,"73":0.8686185410150413,"74":-0.4171333706833035,"75":0.4785472805517122,"76":0.4279531860987222,"77":0.1983791854656982,"78":0.5141326124374063,"79":0.3796757838113432,"80":0.6735874031960669,"81":0.5417461259335085,"82":0.2604483857388254,"83":0.36238179431399303,"84":0.5839664390518231,"85":1.005117564445978,"86":0.21375050249534946,"87":0.3294126790345792,"88":-0.7167888467415248,"89":0.07719974668498562,"90":0.7192580268321086,"91":0.43971914040539567,"92":0.5549760324582299,"93":0.20011916575869704,"94":-0.1656138042556433,"95":0.13615389942243664,"96":0.36586288124181304,"97":-0.014110633610875584,"98":-0.9447715753043853,"99":-0.6611433748515297}},"30":{"bias":0.7015364187262122,"weights":{"0":-0.31783898476227457,"1":-0.417906569852186,"2":-0.4890413636950582,"3":-0.4615120262025547,"4":-0.9004337424256836,"5":-0.5516512256389245,"6":-0.36853961942102387,"7":-0.2805019124002849,"8":0.6096219238179397,"9":-0.3110514924786009,"10":-0.42831985504390585,"11":-0.689493488893933,"12":-0.20699475720354882,"13":-0.016036682884211284,"14":0.12921606569016103,"15":-1.1128838849748004,"16":-0.38955879282364997,"17":-1.1008268504936736,"18":-0.8300319898261027,"19":-0.34811080135078937,"20":0.2982129474280399,"21":-1.7828308131160435,"22":-0.3857144430682738,"23":0.13824511383280771,"24":0.8005599687278283,"25":-2.2432973265238068,"26":0.05328116498027305,"27":-0.09005016741440229,"28":-0.265555166411182,"29":-0.3419045124240724,"30":1.2156597307114154,"31":-0.12996968547539703,"32":0.46427255862890837,"33":0.8452056571176444,"34":-0.6027515810369527,"35":-0.913412972905948,"36":1.9061645724821001,"37":-0.18472881407122685,"38":0.6771808528743367,"39":0.6888239916077166,"40":0.4949034509402951,"41":-1.1913352324690725,"42":1.1839764084804738,"43":0.9970911271408196,"44":1.4222580120117942,"45":-0.11035081275588159,"46":1.4509566512842604,"47":-0.23496230361192835,"48":0.1170206278384475,"49":0.6629573348175417,"50":0.325560537369777,"51":-0.637305043048669,"52":-0.863270338912513,"53":-0.757342505235529,"54":0.6124508561480252,"55":-0.01976579618050257,"56":-1.2325269554776217,"57":-0.8520538796392821,"58":0.45412443712972655,"59":-0.5854526937369477,"60":-0.3173002015779637,"61":-1.276979545946019,"62":-1.03864000707354,"63":0.47673616036454974,"64":-0.32522751061563154,"65":-0.988530569110174,"66":-1.745527179071714,"67":-0.8062410936521066,"68":0.775708577847209,"69":-0.18245783898946671,"70":-0.40361384116092636,"71":0.3046806976528907,"72":0.08327257302981911,"73":-1.194497977738909,"74":0.6856241177540247,"75":-0.7670565237724578,"76":-0.18413147156801823,"77":-0.2247777176987971,"78":0.3838291576303843,"79":-0.021908718361250655,"80":-0.7979382231265362,"81":0.7266899801134686,"82":0.5813500977038065,"83":-0.3509187436109955,"84":-1.5434153077937722,"85":-0.31668957762579875,"86":0.8858063912042955,"87":0.08600246738961109,"88":0.7893970912002647,"89":-0.28335622110684766,"90":-0.1837776530756275,"91":-0.19502697173246772,"92":0.12836561616043998,"93":1.1512249697497887,"94":0.0763059198208188,"95":-0.3119981913308324,"96":-0.6171445524257184,"97":-0.8819145604248868,"98":0.04508932090876762,"99":0.49966353476486963}},"31":{"bias":0.8704433798013702,"weights":{"0":1.1955626854545904,"1":0.17291693442226588,"2":0.652578439190484,"3":0.8994096371475938,"4":-0.16353584799064233,"5":0.4470532913474718,"6":-1.2159246004586728,"7":-0.03482367597534737,"8":0.7752056570064252,"9":0.4636352912599529,"10":0.18277731558636487,"11":-0.4072040621508276,"12":0.34178136267322684,"13":-0.2044875120558168,"14":-0.30348815485309383,"15":-0.14878756303159324,"16":0.09760809103443456,"17":0.8501231086016922,"18":-0.17710153503367537,"19":0.9534953912997299,"20":0.750814873346924,"21":0.09411524557091289,"22":2.3142716394619725,"23":0.04660836288566924,"24":0.2543256344196718,"25":0.24257228136438833,"26":0.5176887084160974,"27":2.2149985256691465,"28":0.38517350097123715,"29":0.2658350145725633,"30":0.6533166696355004,"31":0.8336858108793671,"32":0.7894475295985386,"33":-0.5558525551626932,"34":0.8362826271631097,"35":-1.0645379235163932,"36":0.16683541501905066,"37":-0.4779999224888946,"38":1.1996212394483607,"39":0.48084082865749034,"40":-0.08983738517647513,"41":-0.6968529021297171,"42":-0.8178650180892315,"43":-0.795785103917596,"44":-2.1557628076077076,"45":-0.866034889567444,"46":-0.24050109627969044,"47":-0.026001787586661558,"48":-0.3334107504667964,"49":-0.1332507561212639,"50":-0.5276975643699994,"51":-1.3622110934130869,"52":0.9344204616440971,"53":-0.4755563416098211,"54":-1.4433230886299695,"55":1.756311876246029,"56":-0.4122855946273983,"57":-0.8727328356806102,"58":-0.03108736266600266,"59":-0.26833607084021244,"60":-0.8490682649935094,"61":-0.04897447641693012,"62":-1.439704973122598,"63":-0.740373760307951,"64":0.3237642701143355,"65":0.24442244345822314,"66":-0.22068100941783703,"67":-0.7579949649047246,"68":-1.646402486808028,"69":-0.9169225063989206,"70":-0.6093200446793484,"71":1.0549653690059502,"72":-0.5127048957693198,"73":0.28718907848119973,"74":0.2878109349144024,"75":-2.123013132067071,"76":-0.6649835747285018,"77":-0.7531822553649469,"78":0.2123733237826743,"79":0.10745503405786301,"80":-0.5554625862999569,"81":0.4547367187200137,"82":0.9984981529600698,"83":0.20534703255462028,"84":-1.3380072120851434,"85":0.27137646871484145,"86":0.7892024359661455,"87":0.3079013856620247,"88":-0.15166341014414436,"89":-0.5351090180416885,"90":-0.6691508181368714,"91":-0.5749193540427701,"92":-0.5059576549878307,"93":-1.769806760765509,"94":-0.6706603813640186,"95":0.7512312597049808,"96":-0.6485496556069199,"97":0.2604251791421147,"98":-0.217747447680178,"99":0.6064128132107497}},"32":{"bias":0.7392073645684886,"weights":{"0":0.47163845567003554,"1":-0.06309862739843668,"2":0.47661113872451494,"3":-0.04387526277894882,"4":0.7088638818389948,"5":-0.16733668617384417,"6":-0.2670508554538827,"7":0.17355270675154888,"8":-0.11115252986104256,"9":0.03852706621002008,"10":-0.2843260994203083,"11":0.17550415496611815,"12":0.9250034008411343,"13":-0.0732297188811561,"14":-0.4443666013507655,"15":0.09239391859541143,"16":-0.11449750792113236,"17":0.3257481133683685,"18":0.8207233311907904,"19":0.24223909672904304,"20":-0.18000461240144003,"21":-0.4593215004959767,"22":0.8309001973817551,"23":-0.010358349566325493,"24":-0.5322155750932707,"25":-0.04084355670767517,"26":-0.16031513377317774,"27":0.36150092951032486,"28":0.3343514578738558,"29":0.10812312129084936,"30":0.17117956464832843,"31":0.3234350779301341,"32":-0.387282928819545,"33":-1.2291574812765227,"34":-0.4531353129753709,"35":0.02282606675782147,"36":-0.31899549597500454,"37":-0.06971648886764871,"38":-0.21956420504377275,"39":-0.221082894667148,"40":-0.3698695579626928,"41":-0.5646580943265886,"42":-1.5272854482898008,"43":-1.5841311504621098,"44":-0.43344795612001896,"45":-0.7601253895160309,"46":-0.42143839559335244,"47":-0.5210049339895904,"48":-0.6039550552083136,"49":-0.14108851022512925,"50":0.19494544488874987,"51":0.20741072703989907,"52":0.6726153857196044,"53":0.05710801019482337,"54":0.0011593997737141533,"55":-0.11324299262407608,"56":-0.07693883012078685,"57":0.7717136063074405,"58":0.12890087874138134,"59":0.11302537373913837,"60":0.14983963544629275,"61":0.02791443713030281,"62":0.2344923596126302,"63":0.2531930745384217,"64":0.2353286489363619,"65":-0.21937571542581139,"66":0.23612470860352733,"67":0.24103619364995924,"68":-1.1645259014258063,"69":-0.33847515864348066,"70":-0.3265332419540469,"71":0.1772448571120853,"72":-0.2978481225800349,"73":0.4159117290718368,"74":-0.37479199050798867,"75":-0.6739419856529328,"76":-0.32829662302344337,"77":0.1673627037466776,"78":-0.6118442467649112,"79":0.1448078350349657,"80":-0.008226751234946332,"81":-0.8402955561995447,"82":0.16298868998448085,"83":0.2520776172192038,"84":-0.2839065225738942,"85":-0.0850693022531853,"86":-0.7648546026056301,"87":-0.1666453961374664,"88":-0.3320397262435153,"89":-0.16916289127294662,"90":-0.20323021870879238,"91":-0.03570741598722917,"92":-0.1150858338149123,"93":-0.17608161233747155,"94":0.41337360737200424,"95":0.39424972641643397,"96":-0.42731648763637564,"97":-0.15924150168507317,"98":-0.2225414001790658,"99":0.24777834247796127}},"33":{"bias":1.6388033228592735,"weights":{"0":0.03768022251649934,"1":-0.5406132422466503,"2":0.010226186445955252,"3":-0.08075162818203224,"4":-1.3604601755993688,"5":-0.710416159926968,"6":-0.46871656105817644,"7":0.35723877476172833,"8":0.4020705574169147,"9":-0.11826890283096925,"10":-0.03389207872431338,"11":-0.8230692442930564,"12":0.16236498572560204,"13":-0.6205777057123107,"14":0.19343129447613175,"15":-0.10291626459921731,"16":-0.14674612892350933,"17":0.039718096115516785,"18":-0.8553952189657502,"19":-0.32404705405021467,"20":-0.029149961899184562,"21":-1.335330107467008,"22":-0.4663446638701294,"23":-0.7123046890980805,"24":0.15783363805336809,"25":-0.30553683155519856,"26":-0.5621706413502071,"27":-0.5836202271192847,"28":-1.1459884110325504,"29":-0.5351274102408271,"30":0.7280169751064689,"31":-0.10662189543861582,"32":0.8314268242447387,"33":0.34578100195472106,"34":0.2397240361695476,"35":-0.08546171505496536,"36":-0.01503363823557851,"37":-0.585813718862207,"38":0.5607197759208828,"39":0.09733982998667563,"40":0.2206762129732401,"41":0.17012302789400874,"42":2.388609207542332,"43":2.1642001034520417,"44":2.04461267012301,"45":0.550501064240824,"46":0.7300748791186452,"47":0.4971473900272607,"48":0.42241469920072405,"49":0.3795711854249576,"50":0.16124302689645476,"51":-2.6658548970764695,"52":-0.7720196848292845,"53":-0.7382794415823729,"54":-0.1829931660376221,"55":-0.48486031133397656,"56":-1.0183601486686857,"57":-0.5739071208678186,"58":-0.7128010366355778,"59":-0.21957338057663991,"60":0.056795223196040905,"61":0.07617160774243038,"62":-0.7942487162094911,"63":-1.2653946842291717,"64":-0.4811943955712758,"65":-0.7839229301191025,"66":-0.6740849569946894,"67":-0.18849126792405504,"68":1.0370206238123036,"69":-0.3884677065973984,"70":-0.442089808214677,"71":-0.8301616469671953,"72":-1.0519399715255449,"73":0.0035176480524926894,"74":-0.17737628558713112,"75":-1.6537338612597712,"76":-0.08501288500595688,"77":-0.4570979061047795,"78":0.5656951864922978,"79":0.04434994906511962,"80":-0.5183851475038014,"81":0.856275581288452,"82":-0.04442309109675496,"83":-0.4300347573166167,"84":-1.149676376262536,"85":-0.02655554025044724,"86":0.20864836255696814,"87":0.006967322187113731,"88":-0.4345263145941078,"89":-0.1950006747576983,"90":-0.04304576906675691,"91":-0.01068330197154349,"92":-0.0051501114962809345,"93":0.05035520733240331,"94":-0.3434796771978515,"95":-0.2707004676120731,"96":0.3346398403358842,"97":0.4371971120897635,"98":-0.927863655219625,"99":0.33530904688381585}},"34":{"bias":0.3090186994186409,"weights":{"0":0.4352704768459719,"1":0.1851589965020388,"2":-0.5245379760156976,"3":-0.22086497907569055,"4":0.373821697121954,"5":-0.16581071257421517,"6":0.09244909262460942,"7":0.007095863955845916,"8":0.12086018584412095,"9":-0.11304299157230298,"10":-0.20297655414401922,"11":0.10335005366344753,"12":-0.5368725848724551,"13":-0.1946911447625081,"14":-0.3509005753975739,"15":-0.20927739126913922,"16":-0.6022911580306584,"17":-0.9102937508633357,"18":0.2980562825428865,"19":0.03413765777793577,"20":-0.3658476585840141,"21":-0.34758729297247154,"22":-0.02864021784748891,"23":-0.10031313447960273,"24":0.019088731033380456,"25":0.3696072601926278,"26":-0.8155193037387647,"27":0.21687247362418308,"28":0.430663189684385,"29":-0.5894853638643945,"30":0.4101519366327223,"31":0.05986153819658488,"32":0.45913172385771295,"33":0.0017842013610902398,"34":0.5179971891705485,"35":0.4962697115171524,"36":0.3184517822580531,"37":0.522655058359852,"38":0.2588404002756605,"39":-0.2603762631830951,"40":-0.02457173617009377,"41":0.8597619858556255,"42":0.25703422675687015,"43":0.027780275803512566,"44":0.007212113464835379,"45":1.7928976074511616,"46":0.13264823524314792,"47":-0.25570234022268973,"48":0.21280278641045652,"49":-0.1128512189480388,"50":-0.040774052035650765,"51":0.44867223825025315,"52":0.20910165686582388,"53":0.27516685280672243,"54":1.5428991891297892,"55":0.005437262893555923,"56":-1.8128259929958341,"57":-0.19739589601796392,"58":0.14949067236601157,"59":0.17482705319059103,"60":-0.19128987585300306,"61":0.015890488730863704,"62":-0.5585127274711305,"63":-0.24495253618687535,"64":-0.5406778530245256,"65":-1.3632888958039866,"66":-1.4367597713866405,"67":0.3216746811531529,"68":-0.31742557812214023,"69":0.21635815152525398,"70":0.5608374555988934,"71":0.4112979947694711,"72":-0.30451981715592225,"73":-0.27232081424638027,"74":-0.2632155757546211,"75":-0.4311633514293688,"76":-0.9354503210046765,"77":-0.5704570164437489,"78":-0.5089272044240922,"79":-0.5736630936257429,"80":0.19682051982677046,"81":0.02214090500407131,"82":-1.0193459036913877,"83":-0.4821781641404435,"84":-0.9033687303905793,"85":0.07277041239235199,"86":-0.5787421583146128,"87":-0.07282323259164407,"88":-0.0011176397349883169,"89":-0.22044816291440353,"90":-0.4658535458216817,"91":0.09820936816608,"92":-0.17061607693956554,"93":0.5828133604828059,"94":-0.139453975417809,"95":0.06515390870317087,"96":-0.7489876983798939,"97":-0.3580454813027497,"98":-0.24844477033689152,"99":-0.08196359426981625}},"35":{"bias":-0.701358884890737,"weights":{"0":0.5069320189147901,"1":0.9824613259302712,"2":-0.2181978648136967,"3":-0.3206907013197933,"4":-0.022357763457253176,"5":-0.6137400328957481,"6":-0.21466901808721925,"7":-0.08008238092588586,"8":0.11895990035510165,"9":0.037306194622492156,"10":0.4006098073178835,"11":0.433135299706668,"12":0.18205887388268235,"13":0.48350831894926316,"14":0.367319899720839,"15":-0.2232128538812537,"16":-0.5536200810893985,"17":-0.21483754234636096,"18":-0.35317568654062037,"19":0.7536322100427295,"20":-0.1356027717831044,"21":0.22959906608617303,"22":-0.08773947300397765,"23":0.3582661622257229,"24":-1.0742397314887484,"25":0.054959068008448374,"26":-0.2436302683051437,"27":0.8468637818250643,"28":-0.13278991158107437,"29":-0.45437048957560505,"30":-0.4938471194646247,"31":0.1270017095042403,"32":1.2028161838410087,"33":-0.3465008336322562,"34":1.194833054093915,"35":0.9830403386594475,"36":1.3063749727042422,"37":1.113513234484361,"38":0.8653699454725854,"39":-0.24201234367255645,"40":-0.5650483922236678,"41":1.322887733077283,"42":-0.17030578766958712,"43":1.0718307189148633,"44":-0.3325263641238201,"45":0.36363726430698395,"46":0.5256913941533374,"47":0.145133231908943,"48":0.7230978936755209,"49":-0.19985630491703468,"50":-0.43204266261673874,"51":1.1436817184086268,"52":1.0092791070854252,"53":-0.020494522214664454,"54":-0.5074449802355175,"55":-0.005534835432232959,"56":-0.1474076683261041,"57":0.8868959316773786,"58":0.7766137166537677,"59":0.07196377425617431,"60":0.025343442512414438,"61":1.1028012051248288,"62":0.3342275554989403,"63":1.479124247883819,"64":-1.0787401246566288,"65":1.270879838133919,"66":-0.24636607752434886,"67":-0.14337390942608808,"68":0.38497889217416276,"69":-0.14781364538225022,"70":-0.179563323923722,"71":0.09905314131900103,"72":-0.8530408939303512,"73":-1.1924926403568121,"74":-0.3379642507644247,"75":-0.9538746373523302,"76":-0.7287408913481527,"77":-0.4918915054181188,"78":-0.2207924479260839,"79":-0.21069157650512457,"80":-0.541137230688979,"81":-0.040496874717800974,"82":-0.33217172495620767,"83":-0.790765925320299,"84":0.7327255812447003,"85":-0.20547176444929102,"86":0.016870242325346837,"87":0.6083724299726136,"88":0.26900213222060915,"89":-0.504040236538433,"90":-0.8954951852896094,"91":-0.5255708929809491,"92":-0.4259183566057604,"93":-0.40361184250318993,"94":-0.16347424564040886,"95":-0.46312712441410453,"96":0.3753136071021052,"97":-0.3693303857368227,"98":0.07543438028967986,"99":-0.4214100310938489}},"36":{"bias":-0.06465910733152908,"weights":{"0":-0.27858503680423713,"1":0.0863525697226913,"2":-0.9771388082144189,"3":-0.0654111380956531,"4":0.002230113977848012,"5":-0.39002602584050083,"6":-0.9297363021828924,"7":-0.30400039463487727,"8":-0.2727431728062503,"9":-0.059778807190720665,"10":0.5503518425032284,"11":0.4482654975205655,"12":-0.9810400515153632,"13":-0.017656635350951327,"14":-0.8920092716350702,"15":-0.5566698166083832,"16":0.1197325475789754,"17":-0.370017683766275,"18":-0.4790200946913481,"19":-0.0005117942498533689,"20":-0.018344210782255177,"21":-0.2505656007286617,"22":-0.2876391965344537,"23":0.036171420830797135,"24":0.2887074051693046,"25":-1.2492321267830138,"26":0.693289565502659,"27":0.9377024652026962,"28":0.020983652666641005,"29":0.756090044231568,"30":-0.4834941321747808,"31":-0.4273872394168774,"32":0.5737939889318479,"33":-1.00788987425584,"34":-1.1900288049190342,"35":0.8368171458304562,"36":0.9440651674391253,"37":1.040404073720472,"38":0.6545536858545187,"39":0.5916377452347261,"40":-0.7036096189421559,"41":-0.5709834209623531,"42":-0.7529069826217519,"43":0.5630674407163315,"44":-2.131303346995434,"45":-1.277134078299083,"46":0.3660559388113359,"47":0.441456645987825,"48":1.4873213553597957,"49":0.4815112114128854,"50":-0.5644894076391787,"51":0.8246430770383901,"52":0.06177989941317896,"53":-0.17096010302279224,"54":-1.824199253412627,"55":-2.4191692652395522,"56":2.075784196391194,"57":1.0970277122898013,"58":0.3403728107732531,"59":0.5292551576446256,"60":-0.5830702110385415,"61":-1.0689200292343417,"62":0.10991679269822553,"63":0.3879831547170781,"64":-0.024193078857903564,"65":-1.5506475420370438,"66":0.678422731335847,"67":1.1785401209455593,"68":0.23521744533092162,"69":0.9562811790419629,"70":0.34355961732850215,"71":-0.013252833339065006,"72":0.24762318106986594,"73":0.12459716694795911,"74":-0.228816295926617,"75":-0.33219168375779695,"76":-0.49723700351946526,"77":0.25578662347408765,"78":-0.15001596773843232,"79":-0.5653096124065937,"80":-0.11245243117472603,"81":-0.7294829004730653,"82":-0.9745183877104707,"83":-0.2678993110221266,"84":0.06607310516714389,"85":0.013000283739192037,"86":-0.5705603766080088,"87":0.1747224738124875,"88":-1.0962768871800177,"89":-0.22909543019933173,"90":0.36326069421516194,"91":0.04392327195395682,"92":0.354539636501316,"93":0.46496161642271594,"94":0.7657482955723467,"95":-0.9499502063908091,"96":-0.9638023719119868,"97":-1.1032354077758548,"98":-0.7220021181176391,"99":-0.46234959155771244}},"37":{"bias":0.5246627573384239,"weights":{"0":0.5483811268701653,"1":0.41865554797025334,"2":0.7369683042237724,"3":0.6524179401571046,"4":0.9431204430109272,"5":0.057032583596066465,"6":0.19930518861766328,"7":0.0012024712270088979,"8":-0.12848858707472602,"9":-0.19286068558766964,"10":0.06764726202824864,"11":-0.22758306509655638,"12":0.6506030899949881,"13":-0.08703734595688895,"14":-0.05674657484894059,"15":0.02943960200558053,"16":-0.36838647205335,"17":0.18697266177987096,"18":0.4454188240873206,"19":-0.2425167459934368,"20":-0.28480871292597376,"21":-0.37654688343320547,"22":0.26649583204702443,"23":0.33354186549942766,"24":0.4566825271109972,"25":-1.2161528123636411,"26":0.30348459166026565,"27":0.42876717805908127,"28":0.5792621684186173,"29":-0.3333267107828294,"30":0.1896327921543496,"31":-0.6932119982889254,"32":-1.9800415934791347,"33":-0.7483574279199228,"34":-0.9410376197700382,"35":-0.26767755764665285,"36":-0.3102692253210046,"37":-0.12916906722662055,"38":-0.18126506249215504,"39":-0.5517803020347863,"40":-0.3481475243438357,"41":-0.7255064077970179,"42":-1.1839275491566588,"43":0.03074371744119638,"44":-1.4735153548832263,"45":0.8400458946912761,"46":0.06088677092293897,"47":-0.5730448320533986,"48":-0.4305821216622146,"49":-0.15374862262942063,"50":-0.16592510140249364,"51":0.028868474336332852,"52":-0.3556569733906166,"53":-0.15145857427264703,"54":0.011283427796439125,"55":0.7562203161990384,"56":0.7037388313946079,"57":1.3922690767144685,"58":0.19325939785785043,"59":0.03053550089846957,"60":-0.75921615437356,"61":-0.8449810959909931,"62":-0.5056082089498681,"63":-1.7077690041914129,"64":-0.4080686387599809,"65":-0.5639570149463168,"66":0.22402660631724444,"67":0.02107131377251672,"68":-0.8244261753145913,"69":-0.6216474940847309,"70":-0.22505835131138222,"71":0.11030660816844884,"72":0.09080132257909744,"73":-0.4598274679879511,"74":0.8683845804084435,"75":-0.2143214779218463,"76":-0.7652065809340796,"77":-0.6369243305777448,"78":-1.1859274078672937,"79":-0.34954468370672953,"80":0.33712365075166223,"81":0.33466680321675646,"82":0.7682761314801212,"83":-0.12885539943764232,"84":0.10469571853519664,"85":-0.011330962394724987,"86":-1.1990507787442346,"87":0.21302097118664154,"88":-0.2929821276046658,"89":-0.056509991122376965,"90":0.3205691525045892,"91":0.43906204548604194,"92":0.9598345009185467,"93":0.25725102634774627,"94":-0.04042664871436849,"95":-0.2621390889100013,"96":-0.5062596508708179,"97":-0.7599726993611462,"98":-0.40853265727235993,"99":-0.3485144832071397}},"38":{"bias":0.9584097830690981,"weights":{"0":0.6008421153301481,"1":0.15112485407163148,"2":0.18435178487055473,"3":-0.1917425283686616,"4":-0.12235963976877925,"5":-0.13196107271188645,"6":-0.13102409408984714,"7":-0.3748605033742899,"8":0.23463514318166148,"9":0.17440618815503053,"10":-0.003973739093071924,"11":-0.16034996738338794,"12":-0.10209039290846256,"13":0.035780029437836834,"14":0.2641039162018207,"15":0.46773258459312117,"16":-0.13350339265616343,"17":-0.07271215747585412,"18":0.6240092612567926,"19":0.16482893069699536,"20":-0.16149537071641984,"21":0.08853528812296722,"22":1.520700641981052,"23":0.8687386632838172,"24":-0.43104319561867976,"25":0.8504589059485866,"26":0.23151787205904215,"27":0.6029754623714506,"28":-0.118879662381136,"29":-0.3788830137233577,"30":-0.2997492339051,"31":0.140225876211704,"32":-0.12092066266695484,"33":0.196768916767801,"34":-0.38671335849832866,"35":-0.0342879300283099,"36":-1.4684685676027747,"37":-0.18815770918682817,"38":-0.1857440851635468,"39":-0.420361887036928,"40":-0.7210340202087536,"41":-0.4905558145642317,"42":-0.4208192056014211,"43":-1.207449306505592,"44":-1.899673021624604,"45":-0.38984302439456003,"46":-0.5673299205706923,"47":-0.10210506328869078,"48":-0.339849894800923,"49":-0.1266084850447464,"50":-0.3018770079852123,"51":-0.5400943385472697,"52":-0.6490566995965256,"53":-0.8578989180635538,"54":-0.4758635010886279,"55":-0.37616296925320514,"56":-0.07967630258118094,"57":1.2865537364446697,"58":0.11973450724439824,"59":-0.009486557169789425,"60":-0.23845127043376957,"61":0.5928787749441755,"62":-0.31206498343085975,"63":-0.9566115761185244,"64":-0.026960200597262705,"65":0.2710925775929485,"66":1.0059770463056623,"67":0.12687774726873674,"68":-0.22483285085781488,"69":-0.4156204513619202,"70":-0.7011499965015685,"71":-0.1328263580333229,"72":-0.7409693785323758,"73":0.13029320744628545,"74":0.47263039523301836,"75":-0.5177626169184394,"76":-0.11175214316877913,"77":0.06999869499397307,"78":-0.19761170402609934,"79":0.05318098173655734,"80":-0.14981061430192077,"81":-0.26897646038573336,"82":0.6115834998233445,"83":0.8145934205188954,"84":0.46381239819376274,"85":0.2142427466420909,"86":-0.9488260107049715,"87":0.2528521886415369,"88":-0.6742928339348114,"89":-0.34946330292996464,"90":0.1367728503242761,"91":-0.16131347266882035,"92":0.40539999123292597,"93":-0.5456339669884105,"94":-0.13186360764078034,"95":0.380784601685392,"96":-0.3060441829787295,"97":-0.719674565049318,"98":-1.0226497657331837,"99":0.07070122977470762}},"39":{"bias":0.20536023603501727,"weights":{"0":-0.11484626769873847,"1":-0.05022426309220387,"2":-1.18295261575337,"3":0.10880405810717769,"4":-0.1401858698448207,"5":0.03663361659425354,"6":-0.8337068045970142,"7":0.1531686255084232,"8":0.5209043987157997,"9":-0.013774160652035693,"10":-0.03276227916725024,"11":-0.6371275768630938,"12":-1.0521651947363964,"13":0.0683644403173529,"14":-0.1249631268508021,"15":-0.5701775839464466,"16":0.08028870772107595,"17":-0.6134752403877278,"18":-0.5688352130047527,"19":0.5056222133377615,"20":-0.3042061386850476,"21":-0.9248110963176486,"22":0.8501041178049265,"23":-0.40765767554144544,"24":-0.5081982580168604,"25":0.011138971718216843,"26":0.4850153097801618,